437 500
plane 0.11905 0.115242 0.009021 -0.373934 -0.425845 -0.58579 0.397662 0.259765 0.086146 -0.084963 0.036476 0.112318 -0.174606 -0.225905 0.063412 -0.286405 0.394349 -0.267239 -0.024003 0.477249 0.196805 -0.139194 0.079495 -0.33945 0.560605 -0.029036 -0.175194 0.171043 -0.0347 0.08409 -0.449424 0.330698 0.088177 0.208054 -0.056496 -0.06656 0.038159 0.611408 -0.082873 -0.079976 -0.250155 -0.328695 0.05203 -0.117749 0.150246 0.155072 -0.237294 -0.059046 0.437744 -0.00765 0.14127 -0.11458 0.025412 -0.02328 -0.264407 0.336988 -0.104514 -0.174391 0.082272 0.224356 0.447623 0.030225 -0.184254 -0.133201 0.231001 -0.188889 0.143529 -0.083843 0.253082 0.023987 0.192597 0.282686 0.227247 0.169637 -0.033395 0.015261 -0.428343 0.263458 0.324015 0.173328 -0.331228 0.557525 -0.103853 -0.001919 -0.547819 -0.199166 0.200194 0.130143 0.351944 0.345632 -0.231925 0.281441 -0.168851 0.255894 -0.092618 0.318472 -0.255604 0.047843 -0.145412 0.222968 -0.048289 0.176244 0.048945 0.134024 0.172171 -0.191973 0.055988 0.011655 0.228091 -0.101063 -0.088371 -0.036711 -0.103288 0.145667 0.054108 0.227736 -0.092694 0.371958 -0.196322 0.161409 -0.143686 0.299926 -0.052803 0.078602 0.151078 -0.186259 -0.365565 0.05114 -0.013446 -0.39451 -0.231418 -0.310658 0.120496 -0.126644 0.432617 -0.341026 -0.250801 0.210884 0.175095 0.094146 -0.156238 0.362925 0.059398 -0.144939 0.54913 0.091797 0.017016 -0.012425 -0.191856 -0.022609 -0.022035 -0.559564 0.006755 -0.0705 -0.302363 0.358473 -0.567892 -0.195824 -0.036375 -0.133672 0.04941 0.259404 -0.127054 -0.034629 -0.049796 0.129209 0.286611 -0.042582 -0.096117 0.199665 0.063085 -0.030072 0.16761 0.084256 0.182302 -0.259423 0.072996 -0.159871 0.273807 0.332949 -0.165128 -0.290855 0.150119 -0.129951 -0.11321 0.065452 0.163266 0.502644 0.13003 -0.27235 -0.269851 0.158954 0.18184 0.054666 0.57055 0.097583 -0.143206 -0.72914 0.265984 0.11288 0.342466 0.073876 -0.043226 -0.288838 0.056914 0.214783 -0.171705 0.25423 -0.074869 -0.263768 0.070833 0.122973 0.252627 0.210243 -0.168708 -0.419328 0.104378 -0.483847 -0.079224 -0.47741 -0.144509 0.040873 -0.280213 0.043635 -0.191214 0.468421 0.231416 0.489438 0.260773 0.10769 -0.010489 -0.077003 0.395551 -0.040184 -0.028799 0.00434 -0.428912 0.119875 -0.133693 -0.010249 -0.169632 -0.279237 0.071862 -0.343528 0.343795 -0.154777 -0.574815 0.128596 0.283509 -0.370096 0.054011 -0.328222 -0.110767 -0.033739 0.046746 0.279192 0.678186 0.071101 0.204464 -0.366468 -0.019181 -0.228416 -0.442408 -0.156434 -0.012702 -0.207547 -0.267043 0.205572 0.236439 0.04976 0.07714 -0.150846 -0.099929 -0.090625 0.240842 0.170387 -0.073896 0.006138 -0.27608 -0.108324 0.109195 -0.072758 -0.112493 -0.531135 0.081227 0.034884 -0.273931 -0.048854 -0.080478 -0.161411 0.102095 -0.225683 0.358032 0.126698 -0.261881 0.002704 0.420118 -0.191906 -0.127423 0.072404 0.302661 0.145487 0.036705 -0.024887 -0.196724 0.055504 -0.050795 -0.289402 0.133511 -0.037559 -0.121426 -0.263946 0.445343 0.305132 0.156413 0.001067 -0.518113 -0.040705 0.186999 0.402378 -0.074177 0.369048 -0.186301 0.183809 -0.277222 0.22429 0.21343 -0.740421 0.217455 -0.443692 0.017308 -0.056719 0.146091 0.139636 0.102207 -0.164009 -0.181478 0.174756 0.036895 0.169002 0.215169 0.476858 -0.166977 -0.15448 -0.068364 0.075034 -0.005256 -0.02066 -0.206644 -0.353735 -0.523447 0.136554 -0.063631 -0.062337 0.106431 -0.244834 0.174618 0.065406 -0.445944 -0.0777 0.088883 -0.197702 -0.061041 -0.045544 0.015212 -0.168288 0.014459 -0.046276 -0.002806 -0.078658 -0.071821 -0.336233 0.158327 -0.108813 -0.426227 0.053674 -0.081687 0.358925 -0.348683 -0.296974 0.062502 0.157666 0.238068 0.287114 -0.220216 0.243936 -0.083017 -0.01962 -0.310377 -0.047857 -0.045738 -0.033515 -0.026073 0.196428 -0.133978 -0.19588 -0.224818 0.091905 -0.20787 0.022048 -0.149639 0.222645 0.524411 0.032135 0.248946 0.109409 -0.116644 -0.062035 0.137259 0.414425 0.053431 0.26921 0.346793 0.122088 -0.032892 -0.095271 0.361816 -0.064767 0.30063 0.372158 -0.013233 0.390091 0.145133 0.310564 -0.601587 0.068355 0.11835 0.204114 -0.084151 -0.045858 -0.115573 0.143493 0.065528 0.13605 0.106142 0.524573 -0.255255 -0.02563 0.02166 -0.013834 0.221349 0.365505 -0.074492 0.018755 -0.244901 -0.050727 -0.089941 -0.157101 0.137175 -0.116137 -0.192646 -0.077871 -0.012666 0.016916 0.120516 0.231772 -0.173993 0.243723 -0.113344 -0.239786 0.066219 0.419323 0.006463 -0.450762 -0.39097 0.02114 0.077761 -0.056946 -0.049849 -0.255886 -0.461079 0.172609 0.165036 0.080028 0.223203 0.279807 -0.039636 0.524119 0.155274 0.074537 -0.333019 -0.180009 0.398281 0.12309 0.031507 -0.28383 -0.117204 -0.163513 -0.007589 0.127662 -0.25878 0.398091 0.317067 0.055556 0.161774 0.268697 0.487357 -0.147842 0.071439 -0.269993
stupid 0.280805 -0.011074 -0.096668 0.109504 -0.36064 -0.272554 -0.072515 0.015196 0.270952 -0.144362 -0.408718 -0.019051 0.472745 -0.238027 -0.27669 -0.124749 -0.066344 0.074228 0.110855 0.085269 -0.075399 -0.069934 0.023998 -0.167178 0.027103 0.154344 0.045916 0.105262 -0.065762 0.076623 -0.037087 -0.287328 -0.114094 -0.213703 0.001347 0.336633 -0.00764 0.153453 -0.224926 0.134048 0.106699 0.460434 -0.194479 -0.368903 -0.01845 0.257366 -0.235481 0.12886 0.067361 -0.054471 -3.14E-4 0.331038 0.201412 -0.227013 -0.081505 0.133658 0.094686 -0.246167 0.095951 -0.118838 -0.095009 -0.039982 0.227709 -0.105996 0.019783 0.358931 -0.043597 0.100259 -0.054105 0.113038 -0.093672 0.118276 0.214702 0.065318 -0.396124 -0.051357 -0.294157 -0.378836 0.209583 0.400413 -0.529806 0.283767 0.257006 0.345271 0.195675 -0.166585 0.366901 0.187528 -0.14834 0.097382 -0.099484 0.076349 -0.326153 0.232014 0.42469 -0.012908 0.026428 0.135837 0.460416 -0.389556 0.101501 0.052493 -0.096711 0.223759 0.308041 -0.068114 -0.24682 0.183743 -0.053077 0.148961 0.369753 0.141966 0.173629 -0.006687 0.093368 0.238764 -0.07468 0.394194 0.218716 -0.07114 -0.192846 0.024531 -0.176733 -0.136924 -0.088993 0.153629 -0.118667 -0.342454 -0.118501 0.348668 0.113286 0.091495 0.126636 -0.325971 -0.16582 -0.00551 -0.17983 0.157709 -0.07605 -0.421089 0.165411 0.627998 0.556933 -0.002101 0.500623 -0.086025 -0.628974 0.329273 -0.040076 -0.122726 0.390974 -0.055841 -0.177017 0.143791 -0.007099 -0.238228 0.184273 -0.153925 0.015484 -0.030535 0.303675 -0.236704 0.119827 8.3E-5 0.041306 0.191672 -0.199778 -0.143971 0.144354 0.050958 -0.029504 -0.077617 0.500821 0.111337 -0.232405 0.213433 -0.059705 0.013001 0.137534 -0.275588 -0.437857 -0.355968 -0.089154 0.271478 -0.298803 -0.22406 -0.389624 -0.294343 -0.259479 -0.157608 -0.116969 -0.088248 0.566865 -0.051598 -0.030516 -0.10604 -0.13226 -0.562566 0.569797 0.334845 0.358001 0.1063 -0.264454 -0.626466 -0.050999 0.200745 0.075751 -0.117823 0.251841 0.198799 -0.022912 0.308003 0.03825 0.155111 -0.357066 0.06159 -0.398722 0.480971 -0.065688 -0.128652 0.230501 -0.085517 -0.259545 -0.484506 0.33816 0.132575 0.270423 0.328287 -0.243677 -0.215383 -0.204235 -0.28611 0.137245 0.059015 0.179015 0.032745 -0.437121 -0.103943 -0.059785 -0.30564 -0.212192 0.257043 0.087592 -0.154572 -0.260787 -0.123683 -0.470562 0.209007 -0.043989 0.182343 -0.154078 -0.487319 -0.265973 0.192086 0.038774 0.217481 0.116021 0.381315 0.247929 -0.066579 0.23894 0.04551 0.119913 -0.213123 -0.049358 -0.321368 0.003973 -0.005172 0.004863 0.060337 -0.182435 -0.163946 -0.180539 -0.282402 -0.152774 -0.064162 -0.521649 0.111233 -0.275488 -0.283224 0.245704 0.290078 0.346291 0.351446 0.301364 0.175062 0.143442 -0.219387 -0.288742 0.083313 -0.004853 0.057842 -0.022349 -0.010005 0.275659 0.54181 -0.074674 -0.163116 -0.430032 -0.026308 0.424085 -0.053105 0.327482 -0.213308 -0.303561 -0.128006 -0.31345 -0.219956 0.392691 0.059465 -0.381577 -0.156766 0.155032 0.293382 0.402381 -0.050531 -0.057444 -0.124534 -0.290827 -0.079632 -0.063194 0.289031 0.003523 0.391831 0.105253 -0.101389 -0.329897 -0.039234 0.058016 -0.119446 0.019012 0.253218 -0.351068 0.344176 -0.367522 -0.153759 -0.214091 -0.573663 0.041324 -0.052125 -0.163109 0.058341 -0.171068 0.196542 -0.04434 -0.281501 -0.239568 -0.159848 -0.026294 0.090656 -0.371472 0.331958 0.066644 0.076983 -0.095216 -0.307661 0.166758 -0.062265 0.328637 0.221686 0.193036 0.262894 -0.241025 -0.032418 -0.054251 -0.140739 0.242035 -0.028423 0.297355 -0.326569 -0.076979 0.00502 0.14134 -0.08718 0.048453 -0.054827 0.2824 -0.131785 0.296162 0.177263 -0.24793 -0.035867 0.495127 -0.002369 0.353372 -0.390508 -0.140164 -0.438784 -0.243 0.041931 0.027328 -0.243985 0.075719 0.203532 -0.240283 -0.221828 -0.194709 0.145442 -0.173095 -0.224943 -0.222254 -0.092238 0.312002 -0.073898 0.265907 -0.141256 0.029164 -0.281176 -0.230891 0.223998 0.216973 0.224662 0.162545 0.060781 -0.434661 0.093832 0.029481 0.066301 0.06209 0.270254 -0.060682 0.328086 0.103983 0.259822 0.336561 0.439171 0.212063 0.023238 -0.120866 0.101103 0.050998 -0.083386 -0.020759 -0.079887 -0.26278 0.409341 0.190348 -0.122514 0.138943 -0.030772 0.331397 0.227193 0.223117 -0.424435 -0.008234 -0.190325 -0.22672 -0.469409 0.320562 -0.095481 0.232751 0.470859 0.121365 -0.019871 0.060867 -0.036966 -0.177329 0.072497 0.088665 0.108188 -0.088766 0.176466 0.292843 -0.223475 0.148589 0.083695 0.127071 -0.046239 0.026238 -0.091907 -0.093698 0.098428 0.641021 0.011794 0.057421 0.288544 -0.01467 -0.197671 0.060185 -0.322903 -0.192124 0.270094 -0.037524 0.304219 -0.340928 0.114971 -0.240867 0.015112 0.223499 -0.102077 -0.077684 0.199197 0.119731 0.194464 0.086876 0.344168 -0.544632 0.189308 -0.314523 0.103589
egg 0.042514 -0.257526 0.306303 0.281077 0.0172 -0.292965 0.18339 0.091227 -0.150778 0.286397 0.255571 -0.118352 0.274744 0.009032 -0.032003 0.014776 0.121851 0.301971 0.128757 -0.251387 0.177241 -0.634013 -0.195314 -0.478641 -0.140305 -0.126834 0.298448 0.473151 -0.140376 -0.670294 0.411152 -0.045424 -0.100183 -0.057548 -0.293194 0.034492 -0.127853 0.685174 0.050979 0.602688 0.251903 0.07025 0.586045 -0.034301 -0.32574 0.18823 -0.258125 -0.198437 -0.091964 0.013166 -0.381351 0.101557 -0.21817 0.226782 0.229893 -0.101581 -0.308671 -0.172083 0.230278 -0.274943 -0.081882 -0.269081 -0.090796 -0.205608 -0.26069 -0.303217 -0.085804 -0.392725 0.28774 0.252387 0.525172 0.079783 0.337748 -0.094702 0.129634 0.363054 0.164627 -0.140394 -0.198558 -0.381347 -0.156921 0.384706 0.081853 -0.428783 -0.07844 0.210678 -0.303612 0.12587 0.019306 0.148621 -0.531564 -0.294034 -0.230215 0.39153 -0.150991 -0.347191 0.30914 -0.048682 0.007426 -0.120198 0.141289 -0.538084 -0.252325 -0.529499 0.248429 0.290389 0.249018 0.380369 0.050602 0.609164 0.395905 -0.132886 0.257885 0.158231 0.034214 -0.220836 0.200393 0.353974 0.060228 -0.041011 -0.404707 -0.015133 -0.407607 0.270175 0.029426 -0.031015 -0.112806 0.103871 0.248151 0.407903 -0.05748 0.022869 0.084519 -0.286604 0.557711 -0.62326 -0.018763 0.253771 0.027775 -0.004752 0.187668 -0.247313 0.021275 0.043601 -0.006974 0.048239 0.17927 0.03064 -0.00674 -0.310597 -0.10843 0.097542 0.144013 0.831675 -0.032974 -0.158464 -0.185811 -0.287279 -0.158065 0.073857 -0.012531 -0.145667 -0.048571 0.585685 0.101146 -0.253541 -0.042575 0.370462 -0.108444 -0.196722 0.55451 0.390048 0.039292 0.172206 -0.106521 -0.39605 -0.182702 0.270744 -0.034021 0.036779 -0.240421 0.449616 -0.264602 0.274755 -0.266232 -0.666894 0.427737 -0.409652 0.119257 0.183001 0.294732 0.009855 0.204698 -0.029023 0.069349 -0.183309 0.22796 0.14266 0.024238 0.768166 -0.154801 0.273196 -0.148733 0.298961 0.203209 0.036035 -0.383457 0.569953 0.371156 0.140367 -0.019362 -0.246807 -0.096085 -0.104845 -0.4284 -0.108911 -0.471623 -0.367104 -0.102309 -0.190205 0.144835 -0.017605 -0.117524 -0.191385 -0.152628 0.025637 0.382616 0.114775 0.219339 -0.171517 0.042189 0.149721 -0.134084 -0.253521 0.209605 0.32278 -0.206614 -0.166308 -0.069902 -0.049401 -0.039154 0.077291 -0.26481 -0.275376 -0.544945 -0.311643 -0.198438 0.524489 0.44981 -0.204696 0.436819 -0.097783 -0.239658 0.272397 0.222932 0.132564 -0.073951 0.02316 -0.003357 0.083079 -0.070467 -0.253979 -0.082075 -0.228702 -0.061029 0.211515 0.213374 0.420201 -0.055836 0.181607 0.20677 0.210046 -0.030921 -0.153079 -0.097712 0.437535 -0.013311 -0.27188 -0.28998 -0.048503 0.340415 -0.077754 -0.048307 -0.303501 -0.337579 0.202402 -0.469753 -0.023796 -0.25245 0.378973 0.092386 -0.426982 0.00811 0.276934 -0.113131 -0.191463 -0.10309 0.271572 -0.144869 -0.243406 -0.117881 0.152405 0.158357 0.136666 -0.15152 0.39767 -0.055219 -0.600064 0.398432 0.286726 0.229533 -0.314713 0.25246 -0.132016 0.218416 -0.017875 -0.322245 0.151571 -0.549521 -0.087738 -0.227728 0.385667 0.440664 0.001675 0.121412 -0.045468 0.381117 -0.228852 -0.052068 -0.6364 -0.101773 0.26644 0.247051 0.584678 -0.336513 0.131409 -0.534267 0.22179 -0.267337 0.190058 0.320156 0.005766 -0.325181 0.069141 -0.074824 0.023081 -0.146056 0.090664 -0.177254 -0.114911 -0.197577 0.313013 0.008307 0.019622 -0.18009 -0.625539 -0.472165 -0.214118 0.285874 0.293037 0.576954 0.123724 -0.461369 -0.174389 0.047214 -0.108877 0.196421 -0.049054 0.302075 0.310981 -0.10461 0.060314 -0.562846 -0.254191 0.293212 0.0495 -0.189991 0.072634 0.365222 -0.02856 -0.079903 0.133438 0.349999 -0.308176 0.149616 -0.183987 -0.072433 0.224633 -0.020477 -0.312688 0.475774 0.076386 -0.147101 -0.06641 0.414009 -0.09595 0.425341 -0.027279 0.016841 0.012976 0.031422 -0.010315 0.332315 0.100199 -0.064597 0.390535 0.087844 -0.066939 0.199605 0.291617 -0.332834 0.099308 0.196112 -0.274932 -0.457767 -0.145332 -0.292174 0.196941 0.432078 -0.243023 0.133841 0.119839 0.07556 -0.0409 -0.227201 -0.132333 0.408249 0.078774 -0.129914 0.004469 0.13767 0.31531 -0.455938 -0.049412 -0.098969 0.276871 -0.050947 -0.183005 -0.271405 -0.108445 -0.347171 -0.160653 0.436921 -0.404637 -0.267246 -0.144376 0.644149 -0.019115 0.42412 -0.296121 0.135428 -0.15326 0.54768 0.401511 -0.239278 0.09208 -0.094093 0.222266 -0.135583 -0.178493 -0.221592 -0.277622 0.034221 0.003396 -0.169285 0.038952 0.356555 0.317527 -0.364632 0.052526 0.090011 0.175089 0.214134 -0.078578 0.055115 -0.261643 -0.496137 -0.228555 0.161635 0.096533 -0.191386 -0.093167 0.383257 -0.117865 0.035924 -0.422889 -0.378608 0.087532 0.256753 -0.078853 0.013105 0.141078 0.143213 -0.197514 -0.027905 0.124049 -0.562935 0.01993 0.64511 -0.051803
year 0.108001 0.097961 -0.08889 0.093091 -0.157331 -0.136512 0.062251 0.126805 0.02051 0.003906 -0.004927 0.154578 0.051043 0.306124 0.08766 0.168432 -0.301591 -0.288948 -0.437233 0.054059 -0.032338 0.227025 -0.294903 0.223056 0.15438 0.027295 0.329306 0.104824 0.051214 -0.016149 -0.082863 0.128425 0.049161 -0.157622 -0.050911 -0.001024 -0.059714 -0.097327 -0.077799 -0.117272 -0.036842 -0.292596 0.169286 0.068082 -0.169803 -0.158166 -0.346659 -0.294687 0.116639 -0.090048 0.121899 -0.133069 0.299879 0.064523 0.050676 0.235622 0.145818 0.179114 0.407107 -0.195651 0.064844 0.060564 0.149732 -0.088262 0.106863 0.0656 -0.225313 -0.086828 -0.173928 -0.023927 0.167505 -0.070239 -0.232509 0.065203 -0.144303 -0.214921 -0.069134 -0.167758 0.096167 0.126368 -0.059432 0.060463 0.213887 -0.056567 -0.092499 -0.026574 0.214519 -0.081295 0.073682 -0.121871 0.098164 -0.098354 -0.287503 0.381528 -0.142463 -0.070014 0.019404 -0.093882 -0.411882 -0.089886 -0.020005 0.014657 0.306825 0.089141 0.228531 0.29764 0.245528 0.03285 -0.34317 0.242118 -0.015312 -0.132266 -0.065691 -0.025461 0.231307 0.156317 -0.188246 0.159132 0.244599 0.32331 0.023067 -0.283546 -0.0438 0.241746 -0.296588 -0.099806 -0.194081 -0.029006 0.179235 -0.053657 -0.282075 0.139685 0.134964 -0.067724 0.040384 -0.068082 0.133903 0.129223 -0.156387 -0.263243 -0.246817 0.21506 -0.187491 -0.277056 0.195496 -0.206651 -0.027968 0.142347 0.004101 -0.258233 0.24128 0.130691 -0.095676 0.107602 0.010877 0.125218 -0.131134 -0.290062 -0.080219 -0.024795 -0.164922 0.055338 0.262708 -0.081766 0.149621 -0.326206 0.077759 0.20167 0.046425 0.024353 -0.101711 0.144633 0.415298 0.244915 -0.074073 0.395445 -0.296049 0.090749 0.141058 0.181042 -0.224443 0.005931 -0.085412 0.529842 -0.015788 -0.080051 -0.129519 0.078607 0.176128 -0.058507 -0.154685 -0.036246 0.282056 0.270326 0.044041 0.02788 0.186025 -0.084603 0.124002 0.002319 0.261132 0.006455 0.025393 -0.002094 -0.327432 -0.223381 0.012418 0.374425 0.02788 0.031846 0.289074 -0.170197 0.016338 0.11003 -0.268385 0.113232 -0.059816 0.033148 0.051318 -0.204757 -0.147189 0.12202 0.063872 -0.221715 -0.079722 0.233763 -0.097211 0.103091 0.63796 0.027852 0.384791 0.107979 -0.215789 -0.143227 0.027505 0.231586 -0.027068 -0.069685 -0.075325 0.166906 0.037512 -0.046775 -0.074417 0.090784 0.149585 0.010551 0.112396 0.03501 0.068648 -0.229227 0.216723 -0.075488 0.182335 -0.091107 -0.051008 -0.146466 -0.056621 -0.12831 0.075335 -0.196817 0.073907 -0.03926 -0.226674 -0.035388 0.268588 0.123818 0.248227 0.22492 -0.031537 0.308719 -0.111859 0.075378 -0.082902 -0.123549 0.076237 -0.080001 0.094771 0.012099 -0.011619 -0.235862 0.130418 0.12871 0.158812 -0.189311 -0.057068 -0.091869 0.00273 -0.132891 0.11434 0.163136 0.141559 0.089011 0.1777 -0.042008 0.191192 -0.041683 -0.006332 0.112445 -0.078401 -0.446277 0.067057 -0.001793 0.171673 0.445296 0.013116 -0.151682 -0.150138 -0.145232 0.14854 0.142195 -0.103717 -0.27587 0.022315 0.008736 0.29091 -0.034255 -0.283344 -0.167543 -0.188954 0.156265 0.189801 -0.081919 -0.015813 0.115099 -0.447652 0.283044 -0.165613 -0.369144 -0.066489 -0.191082 0.053379 0.037698 -0.354644 -0.105754 -0.084893 0.07948 0.109869 0.159864 0.038703 0.065693 0.020736 0.197724 -0.036348 0.237882 0.098733 0.129532 0.258595 0.201036 0.192419 0.136236 0.048443 -0.015181 0.198202 -0.186392 -0.044937 -0.036738 -0.004216 0.116672 -0.15702 -0.250131 -0.142094 0.112944 0.034627 -0.250959 -0.172418 -0.188611 -0.282598 -0.044049 0.039621 0.19677 0.283046 -0.177585 0.030893 -0.2804 -0.032886 -0.010603 0.200973 0.054307 0.119912 0.413074 0.093858 0.186651 0.034463 -0.18173 0.304662 0.016985 -0.243046 -0.19396 0.135994 0.045176 -0.072667 0.095527 0.17369 -0.158208 -0.098365 -0.264758 0.006245 0.055706 0.039749 -0.235446 0.188719 0.089157 0.118536 0.252761 0.229757 -0.040273 -0.098653 0.037037 0.317285 0.283442 0.093788 0.011938 0.139738 0.172424 -0.009324 0.02247 -0.045947 -0.134095 -0.031181 0.146889 -0.218747 0.071817 0.051928 -0.083755 -0.36138 0.096597 0.337728 0.216513 0.049694 -0.117389 0.020991 -0.198757 -0.081346 -0.005244 -0.116805 0.120116 0.076316 -0.211448 -0.023366 0.196991 0.059046 0.154199 -0.037301 -0.222711 -0.018141 -0.015872 0.117395 -0.149742 -0.083448 -0.291228 0.317094 -0.299699 0.059099 0.216498 0.120632 0.198208 -0.07187 -0.02701 0.098809 0.141892 0.132133 0.173115 -0.225272 -0.268016 -0.201598 -0.06772 -0.215212 0.253879 -0.247355 0.263082 -0.358934 -0.050316 0.310792 0.16249 -0.137596 0.068978 -0.066466 0.011248 0.19485 -0.437843 -0.302423 -0.019798 0.012338 -0.18418 0.028103 -0.027549 0.051104 -0.279034 0.269359 -0.025449 0.014964 0.257446 0.002038 -0.091933 -0.072679 0.121848 0.006611 0.301786 0.083396 -0.253575
psychiatry 0.158575 -0.334239 0.143439 -0.134587 -0.475932 0.340671 0.358406 0.467667 0.289761 -0.101167 0.232706 -0.244721 0.32255 0.038885 -0.121024 0.443208 -0.13215 0.320244 -0.285059 -0.104998 0.324773 0.433823 -0.29682 -0.461812 -0.172948 -0.492394 0.095893 -0.146366 -0.319275 -0.093333 0.324968 0.148595 -0.028242 -0.156837 0.033219 -0.181423 -0.118125 0.136493 0.201549 0.242579 0.42552 0.242647 0.254977 -0.299994 -0.391779 -0.183232 0.045962 -0.057987 -0.282131 -0.305966 0.087497 0.045894 -0.471165 0.326162 0.152371 0.096345 -0.033012 0.142121 0.174761 -0.013967 0.100628 -0.060725 0.159093 -0.133098 -0.103961 0.321407 0.131942 -0.391532 -0.216722 -0.248831 0.277741 0.082425 0.275802 0.071251 0.13218 0.184436 0.118431 -0.057103 -0.270685 -0.119927 0.105471 -0.550847 -0.09077 -0.539404 -0.355381 -0.281051 0.441421 0.454955 0.223581 0.138892 0.029446 2.21E-4 -0.133659 0.567668 0.342286 -0.094973 0.229686 -0.086238 0.143133 -0.295172 0.164189 0.18949 -0.176435 0.23645 0.076598 -0.185774 0.417669 0.020354 -0.363429 0.292587 -0.120217 -0.597548 -0.166658 -0.409292 0.568387 0.571373 0.06718 0.196249 -0.092859 0.455062 0.3188 0.070043 0.635816 0.102003 -0.127052 0.340168 0.148666 0.240328 0.321329 0.14518 0.277709 -0.238223 -0.037086 -0.170122 0.33384 -0.090725 -0.350913 -0.44469 0.169595 -0.066322 0.01997 -0.303688 0.257286 0.006834 0.178164 -0.277677 -0.121987 -0.249641 -0.114055 -0.486898 0.045326 -0.34941 0.099458 0.628482 -0.097297 -0.032896 0.141648 0.329152 -0.157393 0.284325 0.141918 0.221931 0.058422 0.285109 0.136036 0.084871 0.308309 -0.083739 0.018987 0.10946 -0.020453 0.469906 -0.047954 0.642454 0.151236 0.219825 -0.512215 0.233488 0.296773 -0.136598 -0.218565 -0.26232 -0.109839 0.323944 0.422253 0.346851 0.302691 0.017755 -0.584288 -0.204661 0.038198 0.226678 0.488398 -0.30812 0.111439 -0.03879 -0.144111 0.362123 0.110687 -0.073045 0.100403 -0.06359 0.244709 0.150648 0.002397 0.069874 -0.178902 -0.033195 -0.37213 0.268986 -0.00612 -0.069381 -0.058666 -0.320287 -0.204553 0.182654 0.002474 -0.028048 0.057477 0.024249 -0.049783 -0.167405 0.066839 -0.50685 -0.339546 0.191683 -0.03948 0.022088 -0.154152 0.014777 -0.270657 0.036269 0.138112 -0.361531 0.311192 0.194755 -0.518611 0.154718 0.050782 0.050077 0.00509 -0.224672 -0.061692 0.042163 0.580379 -0.34961 0.163835 0.073159 0.226613 0.186243 -0.140135 0.09885 0.229351 0.019416 -0.332086 -0.112665 -0.023917 0.513228 0.030234 -0.176654 -0.118447 -0.037219 -0.179866 -0.00744 -0.255783 -0.332925 -0.178444 0.168526 0.046378 -0.122763 -0.219277 0.064231 0.208714 0.284925 -0.220254 -0.064295 0.181004 0.43427 0.052704 -0.060788 0.170251 0.012443 -0.613062 -0.065049 -0.138312 0.336664 0.05973 0.354608 -0.186924 -0.004126 0.003946 -0.136653 0.04842 -0.071428 -0.040089 -0.04532 -0.165594 0.037593 0.333749 0.188933 -0.018224 -0.004837 -0.006122 -0.142275 -0.313841 -0.041508 0.090659 0.522117 0.244294 0.187706 0.104168 -0.160043 0.036679 0.278951 0.116411 0.05547 0.233412 0.042486 -0.104285 -0.143679 -0.179677 0.079694 -0.175981 -0.31752 -0.164172 0.042804 -0.195816 -0.12623 0.313374 -0.034819 0.043842 0.445823 -0.178933 0.257325 0.15387 -0.06037 -0.074556 -0.269704 0.298508 -0.127819 -0.148044 0.245524 0.070172 0.294189 -0.042661 -0.277708 -0.106477 -0.525476 -0.33253 -0.054054 -0.121078 0.247801 0.234637 0.189614 -0.156208 0.362324 0.181421 -0.177464 0.136552 -0.139255 0.274906 0.170628 -0.289014 -0.049 -0.163679 -0.100301 -0.234421 0.001406 0.163588 0.156816 -0.05474 -0.235228 0.07499 0.235958 0.1951 -0.154133 -0.066045 -0.282848 0.139365 -0.009818 0.200198 0.082841 0.161309 0.092238 0.247368 0.049416 -0.086196 0.413689 0.448148 -0.383138 0.015397 -0.226586 0.161326 -0.527454 0.039058 -0.014625 0.258267 -0.025027 -0.101558 -0.184115 0.351928 -0.270863 0.023826 -0.155929 -0.132851 0.037768 0.43396 -0.119815 -0.112876 0.365908 -0.146643 -0.055169 0.220705 0.193762 -0.186431 -0.006205 0.295038 -0.07422 0.237611 -0.024106 -0.168278 0.290099 0.933085 -0.169959 0.222302 -0.142176 0.321506 0.661927 0.235981 -0.019583 -0.070011 -0.367024 -0.356958 -0.250857 0.639487 0.138601 -0.266119 0.053124 0.052528 -0.153173 0.198969 0.59382 0.287811 -0.706137 0.014735 0.13547 0.225585 -0.262585 -0.313308 0.318509 -0.154802 -0.282135 -0.05067 0.58579 0.354734 0.007129 0.103038 -0.220666 0.067049 -0.068689 -0.185235 0.434798 0.232932 -0.437517 0.067385 -0.289601 -0.229232 -0.136818 -0.180632 0.006764 -0.142155 -0.188552 0.50014 0.369833 0.210618 0.210013 -0.479369 -0.439064 0.347896 -0.142876 0.064716 -0.335251 -0.650479 -0.050143 -0.260491 0.25727 -0.23896 -0.384992 -7.93E-4 -0.418304 -0.296032 0.380412 0.269023 -0.183812 -0.353203 0.344196 -0.081882 0.554023 -0.285892 0.052361
asylum -0.192034 -0.141925 0.284917 -0.181392 -0.507468 0.261892 0.071413 0.197604 -0.068603 0.039966 -0.1912 0.190325 0.195124 0.217202 0.125772 -0.156934 -0.2821 0.184409 -0.050458 -0.235465 0.24978 0.191933 0.125443 0.262693 -0.181058 0.025976 0.431394 0.148901 -0.184289 -0.111745 -0.253267 0.248225 0.105546 -0.066743 -0.03621 0.205599 -0.358308 -0.023538 0.058955 -0.05416 0.431397 0.257501 0.491973 -0.117728 0.091303 0.395952 -0.260439 0.079728 -0.036832 -0.251324 -0.151969 0.23115 0.022158 0.358972 0.027759 0.449139 0.242196 -0.185208 0.154751 -0.06034 0.175771 -0.006682 -0.067229 0.002983 0.258186 0.168291 0.640376 -0.199158 0.401759 -0.188309 0.461892 -0.351799 0.471506 -0.738783 -0.097831 1.19E-4 0.21183 -0.281156 -0.263253 -0.085914 -0.196864 0.029728 -0.169537 0.268237 0.033661 -0.058867 0.60935 0.44365 -0.179513 -0.018061 -0.148809 -0.279135 -0.236784 0.81326 -0.387403 0.112679 -0.031485 0.270472 0.285967 0.463027 -0.352145 0.032333 0.057593 0.794941 0.372657 0.132486 0.166873 0.062694 -0.223158 0.25335 0.251348 -0.2863 -0.136965 0.116847 0.232227 0.410039 -0.0128 0.201408 0.50297 -0.14185 -0.262729 -0.014739 0.102204 0.40456 -0.467024 -0.115574 -0.214092 -0.292406 -0.043446 0.453948 0.235157 -0.030798 -0.084891 0.037754 0.135451 -0.289298 -0.545991 0.006205 0.171511 0.112306 0.015368 0.554129 0.068036 -0.087638 -0.220412 0.130428 -0.237319 0.123625 -0.379148 0.094632 -0.26015 0.035541 0.243427 0.123832 -0.065782 0.457088 0.259839 -0.341639 -0.018605 0.240854 0.04989 0.085967 -0.291741 0.221369 -0.073176 0.29813 0.287543 -0.343499 -0.501061 0.070946 -0.119125 0.273844 0.764536 -0.064797 -0.362963 0.115094 0.008674 -0.335598 0.292244 0.099361 -0.072874 -0.132458 -0.421325 0.160727 -0.008707 -0.193294 0.055031 -0.35217 -0.174017 0.092396 -0.124986 0.082115 -0.052905 -0.17675 0.203362 0.204604 0.317013 0.005876 0.267487 0.464448 0.637541 -0.361988 -0.261081 -0.080605 -0.202644 -0.107309 0.063779 0.210838 0.545047 0.146898 0.547852 0.590953 -0.410194 -0.124171 0.010022 -0.202385 0.125173 -0.14621 -0.354326 -0.109002 0.220974 0.008522 -0.056621 -0.139272 0.235398 0.547614 0.341094 0.300821 -0.232081 -0.413107 0.147899 -0.049191 0.15382 -0.081419 0.607103 0.53767 0.215166 0.132554 0.11366 0.021377 0.078446 0.180254 -0.325783 -0.039285 0.10902 -0.453325 0.24668 -0.043747 0.363145 -0.437171 -0.299295 0.308233 -0.246852 0.312212 -0.159548 0.600916 0.441229 0.087723 0.201914 -0.121427 -0.284996 -0.28025 0.844817 0.044582 0.022172 -0.343738 0.852172 -0.02821 0.219186 0.076303 -0.473957 -0.016557 0.007011 0.289452 0.094613 -0.009255 -0.105643 0.107872 -0.392834 -0.152704 0.210426 0.029236 0.080591 -0.320009 0.103226 0.17711 0.493551 -0.163727 -0.448822 -0.399316 0.463443 -0.264105 -0.221011 -0.174308 0.088983 -0.057337 0.146606 -0.034622 -0.167354 -0.131888 -0.234985 -0.094262 0.076304 0.303596 -0.140509 -0.387809 0.019021 -0.124 -0.187579 0.287043 -0.160872 0.066575 0.510142 -0.42879 0.373152 -0.136597 0.016981 -0.241871 -0.172225 0.312741 0.079116 -0.015732 0.303405 0.155057 0.195111 0.112938 0.442068 -0.516442 -0.254731 -0.190522 -0.238793 -0.036687 0.197285 0.095017 -0.484876 -0.331647 -0.380207 0.309546 -0.228668 0.31275 -0.126468 0.009586 0.263455 -0.145469 -0.367626 -0.06147 -0.044521 -0.093066 0.131269 -0.204781 -0.106447 -0.017772 0.244431 0.060943 0.344783 -0.070131 0.123058 0.209916 -0.174796 0.557026 -0.534414 -0.438974 0.348495 -0.301241 -0.245156 0.071667 0.125445 -0.243149 0.607143 0.01206 0.217424 -0.002272 -0.256878 -0.033515 -0.139416 0.286551 0.221501 0.539076 -0.466827 -0.158195 -0.123405 0.151756 0.092193 -0.184133 0.017509 0.061823 0.083729 -0.102641 0.227774 0.006159 -0.135565 -0.064488 -0.119216 0.088338 -0.116973 -0.468823 0.166836 -0.213384 0.087243 -0.131484 -0.043434 -0.298876 0.368587 -0.150991 -0.121502 -0.319377 0.236903 0.275985 -0.015406 0.002814 -0.631279 0.180913 -0.011257 0.353482 -0.089949 -0.074112 0.212138 0.121465 -0.014765 0.365717 0.247274 0.529885 0.443988 0.043324 0.01498 -0.08748 0.005572 -0.482405 0.103881 0.189157 -0.197465 0.174375 -0.160758 0.068051 0.129996 0.591083 -0.065862 0.100212 0.143567 0.20982 0.146344 -0.02408 0.421258 0.115422 -0.213402 -0.368059 -0.164804 -0.203665 -0.322664 0.02634 0.486267 -0.432737 0.129035 0.267508 -0.194116 0.384291 0.214644 -0.285341 0.236478 -0.297109 -0.084774 0.058693 0.232827 0.200629 -0.409936 0.093301 -0.043994 0.110388 -0.05358 0.012224 -0.348874 0.160892 0.324252 0.498841 -0.574235 0.192074 -0.516218 -6.67E-4 0.230358 -0.21984 0.054083 -0.31629 0.072451 0.252486 -0.011738 -0.009835 -0.3962 -0.137796 -0.31395 -0.149025 0.567224 0.370702 -0.045194 -0.286664 -0.148887 -0.058281 0.369768 0.190712 -0.244286 -0.506986
manslaughter -0.10939 -0.247372 0.372409 -0.108717 -0.408074 0.207955 0.117292 0.127536 -0.022803 -0.161066 -0.272362 0.230879 -0.238862 -0.300336 -0.180369 0.301429 0.287654 -0.225718 0.073976 -0.323561 -0.303754 0.37384 -0.36713 0.098634 -0.130429 0.252068 0.103748 -0.125507 -0.458786 -0.167368 -0.195637 0.115996 0.221802 0.13408 0.261829 0.019254 0.165125 0.087691 0.725457 0.06186 0.105562 0.176888 0.337041 -0.105765 -0.224544 -0.470145 -0.514643 -0.340747 -0.296591 -0.707201 0.174935 0.371476 0.667146 -0.001228 0.062036 -0.126523 0.260701 0.064621 0.128845 0.135258 -0.519211 -0.06196 -0.109039 -0.721587 -0.033106 0.47448 0.492378 0.09983 0.255873 -0.228354 -0.01654 -0.306401 -0.478448 0.247111 0.246405 0.059605 -0.024355 0.082441 -0.477766 -0.014109 0.268787 0.669883 0.0213 -0.112485 -0.591584 -0.026759 0.3093 0.105997 0.35453 -0.398133 0.134561 -0.029084 -0.101468 0.643871 -0.306425 -0.077428 -0.299348 0.543512 0.174068 -0.065389 -0.295833 -0.316656 -0.099086 -0.073732 -0.158976 -0.347213 0.572761 0.06038 -0.099257 -0.054381 0.3147 -0.3032 -0.284032 -0.19621 0.699774 -0.016705 0.503823 0.065303 0.346554 0.313433 -0.181604 -0.080444 0.411185 -0.372264 -0.419147 0.065386 0.28051 0.543518 -0.156843 -0.138366 0.120806 0.135903 -0.151906 -0.223608 0.228433 0.12662 -0.544877 -0.051645 0.267239 0.318793 0.079948 -0.079714 0.740802 -0.260606 0.241053 -0.122649 -0.303226 -0.22283 0.141236 -0.115666 0.078247 -0.330451 0.111642 0.722092 -0.094346 -0.168916 0.035204 0.199698 0.248891 0.039521 0.010357 0.497785 0.271186 0.279152 -0.021537 0.334496 -0.355133 0.180099 -0.016055 -0.773926 0.006181 0.587706 0.298855 -0.137303 -0.571117 0.090051 -0.178665 0.090753 0.211912 0.193683 -0.752604 -0.035397 -0.244894 0.299564 -0.238166 0.083084 -0.146385 0.10551 -0.416732 -0.122943 -0.140519 -0.338409 0.271956 -0.189683 -0.278981 0.288769 0.209387 -0.927586 0.512964 0.819014 0.02234 0.576562 0.22007 -0.349308 -0.118321 0.071691 -0.117154 0.375337 0.241684 0.242972 0.284117 -0.178788 -0.456448 -0.039533 -0.234637 -0.09262 0.225066 -0.157805 0.005514 -0.065654 -0.642153 0.397271 -0.098802 -0.167636 -0.310635 0.294243 -0.111565 0.634837 -0.40968 -0.0413 0.136461 -0.136607 0.268331 -0.099202 0.411762 -0.073415 -0.503166 -0.084634 0.450398 0.205401 0.374446 0.112671 -0.479555 -0.053674 -0.047459 -0.50324 0.11118 0.140914 0.594531 -0.04269 0.141934 -0.157284 0.105787 -0.243298 -0.527353 0.03844 -0.189933 -0.784129 -0.148565 0.62309 0.259212 -0.241788 0.40971 0.182847 0.34331 -0.514838 0.20564 0.829002 -0.238432 0.126381 -0.105538 -0.024397 0.401474 0.107295 0.493165 -0.436104 0.262087 -0.374942 0.019167 0.321964 0.142285 -0.112904 0.067685 0.089425 0.158798 0.5357 -0.127927 -0.027978 -0.130471 0.254216 0.010977 0.003734 0.055646 -0.148632 0.735148 -0.016552 0.353245 -0.030856 0.182178 -0.351602 0.229691 0.030328 0.244837 -0.196939 -0.02516 -0.378345 0.023174 -0.109654 -0.083036 0.327039 -0.111481 -0.018803 0.405207 0.540727 -0.00851 -0.578557 -0.174938 0.149244 -0.431627 -0.048917 0.026096 0.450048 -0.12884 0.178307 -0.222159 0.068812 0.166179 -0.215118 -0.020398 -0.468816 0.067938 -0.61659 -0.3035 -0.481247 0.346245 -0.127329 -0.362983 0.071539 0.432364 0.310137 0.046776 -0.083753 0.134909 -0.760996 0.15239 0.125094 -0.296639 -0.009406 -0.15012 -0.318607 -0.081376 -0.308748 -0.160094 0.203212 0.085796 0.22286 0.291256 0.30852 -0.389114 -0.365868 -0.30129 -0.517891 -0.467646 0.264762 -0.324551 0.039037 -0.336596 -0.331696 0.241628 0.106417 0.32921 -0.022028 0.094042 -0.485277 -0.046414 -0.206777 -0.020013 0.158764 -0.148035 0.536221 0.180317 0.00375 -0.203832 -0.142888 0.064367 -0.428634 0.04063 -0.07776 0.36382 -0.14429 0.166515 -0.404899 0.264859 0.285749 -0.431555 -0.069499 -0.131039 -0.091292 0.180816 -0.605411 0.062155 -0.126926 0.079244 0.199646 0.363574 0.456012 0.025784 0.323224 -0.295672 0.226781 0.474896 0.136592 0.411686 -0.126637 -0.290693 -0.205047 0.281995 0.258531 0.148925 -0.641452 0.265585 0.17334 0.263147 -0.19439 0.415826 0.11937 -0.238965 0.202656 0.491729 0.51476 0.194696 -0.01629 -0.554597 -0.028506 0.087257 0.125869 -0.153965 -0.405785 0.007966 0.091232 -0.247845 0.493785 0.137309 -0.292182 0.295655 -0.239666 0.304623 -0.07388 0.568465 0.164548 0.02437 0.371558 -0.135183 0.215318 -0.374058 -0.19987 -0.017895 0.227245 -0.036326 0.121494 -0.20874 0.240906 0.357817 -0.177287 -5.43E-4 0.034276 0.185347 0.054515 -0.132238 0.03601 -0.204274 -0.296281 0.339113 -0.006085 -0.392998 -0.535661 0.109861 0.328518 -0.267122 -0.488982 0.14511 -0.306623 -0.082258 -0.614675 0.009542 -0.494526 -0.544254 -0.209671 -0.057346 0.057522 -0.57095 0.776528 0.715992 -0.235204 -0.37175 0.40763 0.873984 0.031418 -0.514939 0.148728
music 0.68342 -0.319506 -0.004633 -0.093613 -0.264335 0.475224 0.140649 0.363109 0.041857 -0.171268 -0.016604 -0.285024 -0.073489 0.103127 -0.034771 0.264717 -0.231673 -0.305692 0.092165 -0.269518 0.215382 0.108195 -0.035455 -0.071666 -0.183895 0.1979 0.249948 0.212655 -0.11778 0.041211 -0.116249 -0.258623 -0.242146 -0.552625 -0.214121 -0.253204 0.410532 0.249424 0.031936 0.14149 -0.274091 0.043833 0.204574 -0.179101 -0.283214 0.054819 -0.049507 -0.431439 -0.36072 -0.106344 -0.300463 0.249774 0.069186 -0.06595 0.516755 -0.048072 0.119298 -0.005852 -0.120886 -0.242987 -0.437141 0.092928 0.192444 -0.130807 -0.361564 0.046214 0.087591 -0.324977 0.344671 0.142639 0.195824 0.035916 -0.124798 0.250496 -0.206295 -0.053868 -0.347752 -0.004901 0.288151 -0.155106 0.308795 -0.171007 0.060312 -0.056849 -0.095994 -0.037206 -0.027338 -0.209073 0.390977 0.430334 -0.074871 -0.392976 0.135702 0.195348 0.176014 0.064027 0.289908 -0.120834 0.003993 -0.348729 0.056935 -0.61148 -0.095417 0.318824 0.305871 -0.122243 -0.335783 -0.094121 0.030644 -0.175545 -0.244941 -0.256944 -0.018011 -0.148315 0.212767 0.577432 0.061126 -0.204571 -0.182201 -0.009305 0.064388 0.188659 -0.277867 0.577882 0.039987 0.440781 0.030361 0.444066 0.164711 -0.0262 -0.291298 -0.437408 0.144393 -0.465317 0.248749 -0.351123 0.054593 0.05797 0.093293 -0.329243 0.376561 0.207351 -0.002489 -0.269744 0.13317 -0.284549 -0.200506 0.164863 0.012303 -0.19626 0.059019 0.272687 0.26841 -0.1412 0.269468 0.119751 0.010034 -0.142366 0.134172 -0.224142 -0.151731 -0.060627 0.325032 0.164998 -0.003866 -0.348988 0.355785 -0.264558 -0.138467 4.71E-4 0.326818 -0.380918 0.05183 0.080838 -0.431481 0.31695 -0.09362 0.292503 0.054107 0.178457 -0.408277 -0.207076 -0.235937 0.071805 0.180722 -0.087408 0.043942 -0.148485 -0.023113 0.39457 -0.301013 0.084791 0.437245 -0.15047 0.355058 -0.116713 -0.003013 -0.148971 0.237267 0.061281 0.097094 -0.225633 -0.093414 0.027414 -0.371025 -0.202801 -0.079608 0.203303 -0.227485 -0.060409 -0.108083 0.03601 0.049736 -0.248591 -0.028941 -0.762921 -0.149214 0.562621 0.025875 -0.322332 -0.062153 0.201279 0.130687 0.137201 -0.719082 0.147088 -0.079445 0.454254 0.268875 -0.278893 -0.207042 -0.370156 0.053942 -0.043736 -0.061204 0.190706 0.016579 -0.2464 -0.078815 -0.191138 0.058641 -0.112493 -0.039362 0.007396 0.159985 -0.016915 -0.128765 -0.140567 0.052057 -0.193269 -0.246702 -0.01277 0.100144 0.153599 0.003196 0.249729 0.205667 0.126693 -0.121779 0.143784 -0.288208 0.217063 0.065267 0.041842 0.358129 0.137233 0.066383 -0.155779 -0.105299 -0.210851 -0.148698 0.129925 0.064144 0.470534 -0.200552 0.075978 0.116404 -0.061649 0.016242 0.032875 0.033224 0.084157 -0.045687 0.162149 0.284538 0.29137 -0.202175 0.160228 -0.1609 0.221662 -0.058715 -0.226778 -0.0309 -0.246955 0.115441 -0.074793 0.239876 0.105585 -0.12526 -0.036003 -0.23797 -0.123551 0.2182 0.162891 0.069897 -0.342576 0.270375 -0.134427 -0.275498 0.117511 -0.180779 -0.094052 -0.014502 0.057358 -0.035047 -0.176055 -0.107906 0.004489 -0.633643 0.292946 -0.118874 -0.05967 0.167707 0.117138 0.035638 0.072718 0.055098 -0.135171 -0.243376 0.199489 0.235102 0.347101 0.129324 0.12808 -0.090707 -0.210559 -0.202805 -0.099008 0.045136 0.411469 -0.12068 0.056436 0.21138 -0.179765 0.494527 -0.173491 -0.037046 -0.503732 0.143028 0.078886 -0.127359 -0.246972 0.092061 -0.174583 0.196841 -0.001806 0.037919 -0.010037 -0.157103 0.161702 0.217464 -0.12099 -0.17095 0.212353 -0.101596 -0.129473 0.133843 0.135375 -0.030305 -0.351025 0.091137 0.195705 0.032894 -0.045854 0.243872 -0.212376 0.208498 -0.029574 0.00427 0.149281 0.050349 0.116772 0.025082 0.023277 0.011353 0.043859 -0.261163 0.011729 0.337826 0.285113 -0.065096 0.152027 0.126262 -0.067059 0.141293 0.071539 0.012389 -0.14937 -0.379683 0.051364 0.150118 0.098482 0.236251 0.02764 0.036043 -0.034463 0.472239 0.172804 -0.005674 0.396524 -0.134203 0.21389 -0.011934 0.021804 0.001379 0.071332 0.052966 -0.022876 0.220936 -0.09393 -0.089451 0.025494 0.163106 -0.2739 0.160792 -0.06955 0.394046 -0.104686 -0.123309 0.122691 -0.3273 0.187673 0.34471 -0.377885 -0.165941 0.158541 -0.112615 -0.005853 0.012012 -0.103116 -0.061737 0.196376 0.133779 -0.220707 0.140334 0.116537 0.104706 -0.168462 -0.140961 0.129849 -0.067475 0.157104 -0.276215 -0.088526 0.098604 0.426123 0.193091 -0.156244 -0.005453 -0.141298 0.004087 -0.071818 0.37681 0.198202 -0.426515 -0.488675 -0.022406 0.187159 -0.159753 -0.282081 -0.147478 -0.166787 0.094801 -0.112375 0.312601 0.490769 -0.082099 0.009195 0.080855 -0.026791 -0.018947 -0.141542 -0.117735 -0.082375 0.338793 -0.203336 -0.103049 -0.333498 0.262503 -0.03612 -0.277169 -0.295553 0.577455 -0.094182 -0.150246 0.343138 -0.083108 0.146894 0.0833 -0.122982
record 0.370841 -0.053524 -0.242286 0.134584 0.218769 -0.13903 -0.406607 0.161849 -0.060947 0.128049 0.116463 -0.241232 0.474249 0.034758 -0.097607 -0.2294 -0.209007 -0.379189 -0.198625 0.22021 0.237088 -0.080791 -0.107673 0.034162 0.014216 -0.105936 0.144774 -0.114787 0.194853 -0.025271 -0.014187 -0.357122 -0.241208 0.033386 -0.143146 0.143256 -0.124117 0.302289 -0.549003 0.014425 -0.058747 -0.131359 0.125019 -0.239175 0.093274 -0.375663 -0.45852 -0.031217 -0.009846 0.253763 0.031971 -0.405407 0.146605 6.5E-4 -0.493937 -0.03134 0.081329 -0.173266 0.189475 0.321231 -0.165892 0.159392 0.358372 -0.296385 -0.033384 -0.094512 -0.157769 0.046507 -0.04125 0.165531 0.304193 -0.173218 0.395442 -0.023322 -0.117942 -0.218604 -0.13563 0.195972 -0.07587 -0.014055 0.134401 -0.265114 0.116738 0.047949 -0.010177 0.240747 -0.100344 0.036164 0.369294 0.319083 0.08994 -0.17673 -0.04362 0.002524 -0.011726 0.039371 0.062878 -0.118689 -0.378473 -0.040172 -0.591377 0.12205 0.462631 0.484334 0.07757 -0.082753 0.552184 0.218512 -0.09946 0.234359 0.454641 0.123258 -0.316052 -0.286991 0.159574 -0.010569 -0.135266 -0.155704 -0.163912 -0.002757 0.062335 -0.031318 -0.105945 -0.179453 -0.594124 0.165853 -0.132325 -0.151491 0.318752 -0.255475 -0.200006 -0.06053 0.157281 -0.39571 -0.035913 0.151949 0.007506 0.282862 -0.047577 -0.078137 -0.072237 0.047374 -0.183388 -0.303365 0.214574 -0.131654 -0.066631 -0.236686 -0.350877 -0.177927 -0.089043 0.237673 0.183316 -0.008358 0.01714 -0.19523 0.224532 -0.299405 -0.420775 -0.122152 0.139969 0.280767 -0.102176 0.212771 -0.225076 -0.043787 0.234068 0.096771 -0.215985 0.006085 0.078405 -0.081317 -0.038333 0.234779 -0.254287 0.384619 -0.011406 -0.342857 -0.042944 -0.177948 -0.196042 0.312658 -0.052523 -0.076765 0.464473 -0.36967 0.240993 0.151161 0.12508 0.261262 -0.114707 -0.364592 0.04579 0.015253 0.076079 0.134164 0.376063 0.407342 -0.050597 0.291451 0.112191 0.036369 -0.008849 -0.202091 -0.299774 0.177156 0.309207 0.219366 0.124144 0.007495 0.123277 0.272337 -0.102975 -0.157477 0.041582 -0.503148 -0.014123 0.249384 -0.004818 0.02805 -0.012044 0.103882 -0.249569 -0.098456 1.76E-4 -0.030491 0.223519 0.033868 0.847612 -0.536733 -0.159605 -0.091371 0.274784 0.114473 0.203522 -0.041396 0.212539 -0.400343 0.038229 -0.073676 -0.487783 0.467271 -0.197484 0.398345 -0.029364 -0.42514 -0.076352 0.5372 -0.110909 0.289739 0.031547 -0.101794 0.152324 -0.323323 -0.112757 0.511272 0.009819 -0.116645 -0.129828 -0.188746 -0.093971 -0.429237 -0.069164 0.040363 -0.247329 0.005164 0.369272 0.0213 -0.276724 -0.013042 -0.107788 -0.053935 -0.095806 -0.083846 0.362867 0.206492 -0.02817 -0.259479 -0.072834 -0.29363 -0.156118 0.122722 0.301498 0.171559 0.113104 -0.136385 -0.603661 -0.205481 -0.056015 0.05128 -0.05485 -0.162281 -0.051442 -0.31981 0.195287 -0.560183 -0.324987 0.114675 0.055894 -0.079912 0.066204 0.061276 -0.313942 0.400372 0.010959 -0.020278 -0.434135 -0.084086 0.396211 -0.077457 -0.206195 -0.169737 0.09374 -0.250077 0.61209 0.173424 -0.358546 -0.116542 -0.619121 0.258767 -0.105387 -0.107733 -0.079023 -0.068547 -0.213365 -0.238866 -0.138746 0.05053 0.013592 -7.38E-4 -0.264239 0.091093 -0.314274 0.006749 0.11475 0.251155 -0.196153 0.141719 0.246434 -0.060447 0.433809 0.115634 -0.268874 0.03925 0.128994 0.191548 0.017171 0.072951 -0.193722 -0.17588 -0.062284 0.053168 0.074863 -0.173906 0.005089 -0.23326 -0.145238 0.034195 0.106016 -0.247838 -0.358806 -0.101713 -0.595754 -0.248165 -0.121425 -0.025607 0.2553 0.521659 0.549311 0.026625 -0.179046 0.034921 0.016808 -0.314837 -0.519104 -0.059001 5.9E-5 0.341391 -0.032571 0.276488 0.240461 0.478265 0.270946 0.05073 -0.246812 -0.093259 -0.259574 -0.068714 0.069326 0.116097 -0.151333 -0.229221 0.066715 -0.093668 0.272713 -0.252586 0.273734 0.125719 -0.318532 -0.138719 0.150578 0.461185 0.374166 0.417674 0.506225 0.126138 -0.089491 0.085155 -0.284487 0.100914 -0.05596 0.174369 0.101886 0.230265 -0.529967 0.094854 -0.058285 -0.089909 0.273833 0.205667 -0.010987 0.439415 -0.307487 -0.190616 -0.168403 -0.171594 0.459485 0.142686 -0.212461 0.23933 -0.61465 0.235005 0.006335 0.242228 0.073749 0.183009 0.048447 0.335516 -0.498725 0.303513 0.064086 0.272427 0.055164 -0.389858 -0.061929 0.200552 0.049658 -0.179407 -0.041967 -0.069257 -0.140143 -0.306244 0.191547 0.121084 0.393868 0.105469 -0.013099 -0.342001 -0.107399 -0.106057 -0.026111 0.039577 -0.007501 -0.124218 -0.250845 -0.024815 -0.054423 0.398996 -0.236115 -0.441038 -0.148584 0.121934 0.291824 0.260765 0.159675 -0.106683 -0.186354 -0.211094 0.260638 -0.326634 -0.047306 0.187149 0.07752 -0.261337 -0.249067 0.215263 -0.319608 -0.223762 -0.165409 0.164641 -0.185636 -0.336988 0.093615 0.19119 -0.022603 -0.088781 0.316408 0.083578 -0.124031 -0.186319
energy 0.003447 0.074107 0.190278 -0.083823 0.092045 0.210431 0.254207 0.086124 0.178331 -0.20719 -0.432841 -0.506471 -0.14995 0.045449 0.238641 0.067538 -0.098618 4.8E-4 0.284338 -0.049993 -0.115985 -0.103965 0.21851 0.285315 -0.07008 -0.095866 -0.232828 0.328713 -0.304704 -0.459855 -0.078204 -0.123928 0.046015 -0.319428 0.099587 0.046839 -0.160336 -0.042053 0.074557 0.112653 0.170888 -0.034203 0.034687 0.137531 0.112642 -0.045096 -0.37712 -0.118907 0.152476 0.42217 -0.364448 -0.375465 0.075696 -0.064501 0.117395 -0.111296 0.037365 0.175614 0.099445 -0.193807 0.304054 0.336292 0.320123 0.370088 -0.473781 0.086579 0.335003 -0.099189 0.375514 -0.110442 0.176128 -0.277808 0.398732 0.031669 0.010056 -0.104824 0.009367 -0.228409 0.174891 0.138898 0.02885 0.134974 0.093442 0.205598 -0.12293 -0.055877 0.066308 -0.003248 0.163825 -0.015159 0.009945 0.168267 -0.108621 0.370061 -0.238699 -0.089522 0.195836 -0.108407 -0.450283 0.130262 -0.024751 -0.12249 0.234872 -0.02131 0.285597 0.258986 0.005373 0.266041 -0.599411 0.16206 -0.425863 0.175171 -0.249641 -0.045177 0.06169 0.299322 -0.288045 -0.09454 -0.17845 0.348605 0.333244 0.075278 0.308604 -0.352893 -0.224991 0.102408 -0.128778 -0.227666 -0.025586 -0.071938 -0.111472 0.064794 -0.164622 -0.137806 0.268974 0.039647 0.387128 -0.212913 0.136228 -0.213264 0.012646 0.517437 0.138774 -0.120066 -0.008169 -0.013891 -0.012128 0.144871 -0.391665 -0.305248 -0.043683 0.042682 0.360559 -0.093175 -0.150384 0.364059 0.34335 0.06984 0.3185 0.359761 0.223943 -0.059072 0.255157 0.076011 0.334029 0.208757 -0.135558 6.19E-4 -0.121263 0.09892 0.395252 0.326251 0.150087 0.431623 -0.15222 -0.11164 -0.220654 0.321587 0.174905 0.155478 -0.045404 0.195663 -0.189614 0.144846 -0.069792 -0.39735 0.264911 -0.473276 0.299712 0.121424 -0.205823 0.002719 -0.1009 0.262073 0.430136 0.145717 -0.080791 -0.063085 0.274694 -0.03803 0.133317 0.421436 0.067273 0.042083 -0.051764 0.384221 0.357332 0.214925 -0.248442 -0.191738 -0.31004 -0.128073 -0.45503 0.251992 -0.136264 -0.227625 -0.203489 0.116993 -0.138631 -0.232538 -0.174249 -0.213414 0.146564 -0.220101 -0.297186 0.148706 -0.117122 0.507684 0.3846 -0.039367 -0.199714 -0.922626 0.288259 -0.244452 0.060335 0.350547 -0.328426 0.032862 -0.250898 -0.088203 -0.199317 0.084606 0.079539 0.057954 -0.013745 0.034666 0.101535 0.014802 0.486048 0.061689 -0.18212 0.125827 0.130798 0.002819 0.240313 0.152999 -0.003716 0.035262 -0.486671 0.149684 -0.081402 -0.222103 -0.116123 0.087836 0.373484 -0.135114 0.185138 -0.209858 0.136513 0.071864 0.111128 0.331333 0.008467 -0.167129 -0.141253 -0.106895 0.039452 -0.06116 0.009263 -0.234559 0.248996 -0.070189 -0.005437 0.06945 0.09703 0.00423 0.242002 0.119378 0.13162 0.086423 0.348803 -0.135109 0.228382 -0.266123 -0.027465 0.174404 0.323811 0.146062 -0.166092 0.131994 -0.020896 0.131457 -0.050333 0.258384 0.023564 -0.158637 0.079719 0.305318 -0.085181 0.168821 -0.500043 0.170521 0.449915 0.077725 -0.290747 0.013904 -0.216728 -0.44212 0.357585 0.075972 -0.091148 0.381293 0.123441 0.340439 0.016438 -0.005196 0.247118 -0.332745 0.154692 -0.013858 -0.103022 0.113985 0.046281 0.307011 0.189553 0.142393 -0.162481 0.005806 0.374856 -0.080853 -0.213009 0.126028 -0.348189 -0.363619 -0.235567 0.109836 0.054089 -0.218094 0.04971 0.105735 0.054599 0.231898 -0.003525 -0.00931 -0.247094 0.049081 -0.226905 -0.217585 -0.164891 -0.410631 -0.014376 -0.123504 -0.008409 -0.002518 -0.17702 0.260882 0.163507 0.15158 0.135419 -0.007294 0.444383 0.143824 -0.337411 -0.137569 0.081945 -0.030642 -0.037995 -8.28E-4 -0.041079 0.29984 -0.105127 0.19737 0.27004 0.036702 0.443005 0.137134 0.010082 -0.142925 0.153098 0.132455 0.06735 0.099315 -0.251033 0.279997 -0.083891 0.03029 -0.041065 0.012293 0.350027 -0.067095 0.003807 -0.151305 0.157929 0.467373 -0.069831 -0.129555 0.170424 0.065761 -0.182374 0.426955 -0.100401 0.311806 0.35333 0.252826 -0.18828 -0.36688 0.160783 0.109113 0.070968 0.277408 -0.282138 0.194388 0.501752 -0.152943 -0.472937 -0.129166 0.46961 0.275876 -0.255828 0.262823 0.155118 0.009722 -0.192304 0.001374 0.045186 0.04001 -0.2208 -0.06783 -0.172971 -0.044588 -0.42397 0.399959 0.201171 -0.156593 -0.015562 0.287987 0.526005 0.128794 -0.087161 0.135706 -0.042521 -0.167474 0.117227 0.174816 0.37633 -0.090848 0.159828 -0.298761 0.013287 -0.207156 0.068312 -0.167306 0.087337 0.132585 -0.295704 -0.116152 0.184695 -0.003484 -0.035739 0.408306 0.138011 0.056232 0.158824 -0.165074 0.064003 0.321456 -0.082924 -0.177356 0.112931 -0.292114 -0.129254 0.158088 0.215471 -0.201044 0.067308 -0.229028 0.159211 0.147189 0.152991 0.149605 0.238476 -0.05348 0.475516 0.110792 -0.024071 0.1506 -0.09965 0.109544 -0.049862 0.203643
announcement 0.14471 -0.076395 0.099132 -5.44E-4 -0.573941 0.06243 0.134089 0.12576 -0.28469 0.019907 -0.030503 0.170264 -0.126319 0.205895 -0.132238 0.111296 0.136183 -0.09934 -0.051807 0.165638 -2.99E-4 0.144728 -0.182125 0.224911 -0.164002 0.140778 -0.127934 0.118472 -0.042993 -0.143528 -0.394528 0.066118 -0.118572 0.30622 -0.089273 0.08915 0.107961 0.087144 -0.096958 0.075396 0.180236 -0.05956 0.008608 -0.137804 -0.041832 0.289767 -0.03387 -0.281863 -0.152783 0.064478 0.233111 -0.059277 0.320648 -0.183346 -0.116493 -0.137697 0.519349 0.432226 -0.019299 -0.07663 -0.230708 0.135919 0.066177 0.230503 -0.267695 -0.329472 -0.110745 0.181517 -0.110322 0.083313 0.317532 0.299333 -0.213025 0.162625 0.237821 0.149265 -0.147088 -0.13316 -0.402212 -0.294485 0.130596 -0.064101 -0.057084 -0.16542 -0.235031 -0.189641 0.077365 -0.490675 0.026321 0.215557 -0.135065 0.253591 -0.077141 0.168446 -0.066721 -0.277652 0.266689 0.038097 -0.316287 -0.121985 0.053171 0.057873 0.312149 0.510291 -0.012986 0.094529 0.112033 0.074876 -0.153633 0.455985 0.028867 -0.296396 -0.206778 -0.194008 0.371491 -0.335399 0.007056 0.445657 0.112511 0.054177 -0.166521 0.200579 0.137679 -0.106061 0.258558 0.225711 -0.301333 0.351912 -0.174109 -0.167189 0.167827 0.085093 -0.139868 0.091565 0.395316 -0.155572 0.259135 0.053699 0.178954 -0.103048 -0.349217 0.269709 -0.091406 -0.174251 -0.034248 -0.082388 -0.100804 0.109565 0.062731 0.079288 -0.243661 -0.289126 0.184844 0.217036 0.241287 0.22798 0.012801 -0.458088 -0.357048 0.361294 -0.576213 -0.405652 -0.160825 0.346941 -0.062246 -0.047945 -0.180012 -0.312533 -0.018292 0.050316 0.21197 0.107956 0.092339 0.083624 0.098456 -0.014426 0.030562 -0.328305 0.164047 -0.050234 0.03952 -0.211926 -0.318517 0.192671 0.111706 -0.06924 -0.16495 -0.108571 0.228606 0.510554 0.154071 0.036975 0.25196 0.3902 0.105906 0.021953 0.078802 -0.202458 -0.052396 0.160634 0.200581 0.144162 0.212787 -0.393204 -0.318757 0.115242 -0.139629 0.07831 0.419342 0.019258 -0.080909 -0.077187 0.05165 -0.00516 -0.136441 -0.047824 0.185421 0.292239 0.12561 0.018255 -0.024588 0.092066 -0.157784 -0.13348 -0.111479 0.591426 0.084998 0.05834 0.387832 0.334756 -0.249929 -0.145529 0.166227 0.115317 -0.027128 0.204845 0.380657 -0.057326 -0.457434 -0.051921 -0.22808 0.060854 0.070102 -0.036196 -0.073873 -0.291184 -0.071475 -0.122275 0.118893 -0.029061 0.135174 0.216983 0.338144 -0.035684 -0.208088 0.371474 -0.036167 -0.28936 -0.016755 -0.556909 0.207 0.179397 -0.328108 0.176081 0.080097 0.278436 0.234984 -0.219271 0.352663 2.7E-5 0.059602 0.09641 0.027623 0.098225 0.178378 0.307619 -0.370428 -0.258103 -0.201455 -0.187956 0.093277 -0.027741 -0.169707 -0.319226 -0.073405 -0.084746 0.049137 -0.160942 -0.18601 0.280657 -0.37736 -0.1512 0.127898 -0.202518 0.23793 0.279914 -0.062281 -0.001389 -0.386217 0.096442 0.094423 0.047856 -0.245837 -0.183378 0.03788 -0.017866 -0.118954 0.018593 0.331431 0.029102 -0.028127 0.24869 0.353188 0.509313 0.227411 -0.12146 -0.639627 0.130298 -0.015462 0.062311 0.014263 0.465155 0.090848 0.125507 -0.017421 0.443923 -0.260352 -0.379606 -0.049941 -0.100198 0.015069 -0.08372 0.059143 0.212242 -0.148929 -0.084577 0.153811 0.252867 0.155252 0.268177 -0.181686 0.317751 -0.400571 -0.069678 0.304968 0.036201 -0.036995 -0.0748 0.178203 0.192321 0.409822 0.01365 0.331289 -0.114253 0.199316 -0.192416 -0.013386 -0.173997 -0.188474 -0.083003 0.228786 -0.065784 -0.047763 -0.161874 -0.083074 -0.196542 -0.249722 -0.011722 0.59955 -0.235512 -0.270408 -0.474684 -0.018611 -0.365806 -0.283085 -0.320295 0.119066 0.151408 -0.192499 0.229501 0.461172 0.088807 0.285649 -0.113859 -0.094631 0.044668 0.05271 -0.171502 0.153776 -0.054085 0.023537 -0.288332 -0.144099 0.212992 0.191594 0.018437 -0.34028 0.306642 0.067884 -0.025019 -0.109775 0.264629 0.223233 0.236531 0.275515 -0.545975 0.018146 0.098405 0.074699 0.434071 0.10141 0.228223 0.310578 0.118046 0.047797 0.170711 0.044126 0.084287 0.090848 -0.050226 -0.037785 0.062317 -0.228634 -0.015166 -0.075347 0.351098 0.230461 0.237681 0.046004 0.162528 0.179525 -0.10985 0.230825 -0.045746 0.009384 0.386653 0.211332 0.049219 -0.429725 -0.122856 -0.004302 0.252516 -0.235886 -0.293949 -0.241203 0.005605 0.179219 0.144458 -0.006567 0.267572 0.147403 -0.450106 0.299905 -0.432587 0.217885 0.215168 0.490224 0.427394 -0.153671 -0.015288 0.437236 -0.065091 0.230164 -0.160761 -0.11051 -0.268976 0.23223 0.124987 -0.149139 0.062415 -0.026784 0.323736 0.164045 0.016835 0.008931 0.149576 0.066066 -0.290053 0.266368 -0.445095 -0.389298 0.011135 0.221099 -0.024624 -0.150693 0.230549 0.137959 -0.160937 0.114356 -0.094193 -0.219407 0.271738 0.40733 0.124102 0.032138 0.031796 0.1343 0.218098 -0.334278 -0.196858
mile -0.123541 -0.176461 0.080631 0.030363 -0.256645 0.124172 -0.337746 0.155733 0.043348 0.052022 -0.334898 0.053128 -1.4E-5 -0.263547 -0.611612 -0.339023 -0.214123 -0.018839 -0.194168 0.411492 -0.382425 0.137672 -0.378391 -0.186669 0.233401 -0.230802 -0.236851 0.206827 -0.381635 -0.138042 -0.220599 -0.399273 -0.002052 0.192309 -0.382043 0.135085 -0.193887 -0.140874 -0.06503 -0.178322 -0.406172 0.457887 0.448646 0.288788 -0.186472 -0.031566 -0.11707 0.322101 0.131049 -0.327588 -0.083555 -0.019045 0.150511 -0.154575 -0.300761 0.030074 0.321291 0.475605 0.003269 0.13489 -0.568995 0.035311 0.224119 -0.292022 0.253866 -0.22548 -0.159383 -0.291482 -0.170217 0.106663 -0.094591 0.347512 -0.273618 0.227416 -0.1915 0.288809 -0.468914 -0.246101 0.189199 -0.258202 0.095553 -0.029108 0.246819 -0.293113 -0.092084 0.534944 0.287959 0.042014 -0.163395 -0.182689 0.550652 -0.013297 -0.127636 0.962619 0.213698 0.334347 -0.13816 0.033016 -0.737035 0.091305 -0.133658 0.084716 -0.136228 -0.036709 0.26165 -0.202988 0.453135 0.273302 0.316959 0.272617 0.269795 0.219658 0.32905 0.268023 0.251405 -0.027261 -0.464295 0.20849 -0.223629 0.261224 -0.075817 0.179093 -0.197691 0.538773 -0.07771 -0.218365 -0.346656 -0.19341 0.347037 0.343597 -0.686224 -0.215056 0.276885 -0.125232 -0.018745 0.307593 0.106629 -0.115522 0.277672 -0.651413 -0.126974 0.326039 0.162423 -0.555463 -0.079996 -0.098656 -0.299802 0.352364 -0.565245 -0.742722 -0.238844 -0.442811 -0.08829 0.335808 0.197475 -0.246412 0.307923 -0.131678 0.063221 -0.024582 0.064108 0.225107 0.111176 0.069408 -0.27388 0.184453 -0.336761 0.05119 -0.444863 0.032602 -0.185976 0.441242 0.352776 0.252163 -0.368999 0.374874 0.095877 0.512152 -0.334786 0.334899 0.037858 0.506089 0.140056 0.714468 0.048974 -0.17602 0.277024 -0.154815 -0.230035 0.332376 0.136968 -0.058086 -0.010069 0.305454 0.140077 -0.017803 0.266749 -0.397139 0.734015 0.096407 0.328673 -0.336796 -0.020136 0.077934 -0.015631 0.05896 0.012465 0.09276 -0.102864 -0.116999 0.318602 -0.161047 0.113096 0.366947 0.058553 -0.211339 -0.254769 -0.005413 -0.21591 0.240428 -0.096427 0.310531 -0.218175 -0.078367 -0.381485 -0.028002 0.041297 0.170493 0.150117 0.10003 0.318015 -0.039412 -0.029853 0.212435 -0.126641 0.340547 -0.069762 -0.060888 -0.298483 -0.164329 0.267873 -0.180049 -0.127296 -0.086694 0.064975 -0.094282 -0.127908 0.344483 0.299451 -0.442094 0.143496 0.241754 0.110458 -0.133846 0.346648 -0.259966 0.116972 -0.101259 0.089832 0.285076 0.151823 -0.267379 0.155493 0.279426 0.151444 0.198525 -0.074131 0.124536 0.18987 -0.051061 -0.201483 -0.059614 0.065809 -0.150678 -0.026868 -0.141334 0.154829 0.013822 -0.254616 -0.067989 0.239937 0.370202 0.221061 -0.044431 -0.325198 -0.233426 -0.399373 -0.3763 0.057589 0.015639 0.181771 0.168024 -0.026004 -0.018193 -0.229028 -0.199393 0.407627 -0.104516 -0.293219 -0.411763 0.724205 0.122495 -0.237288 0.079611 0.095998 -0.454553 0.092847 -0.616212 0.445159 -0.237768 0.097127 -0.3008 0.100085 0.172545 0.238418 0.518277 0.172363 0.302069 0.124466 -0.171013 -0.123629 0.093137 -0.042133 0.034989 -0.209552 -0.02801 -0.02384 -0.197784 0.011368 0.063868 -0.271749 0.35474 -0.040891 -0.070344 0.328569 0.285977 -0.154289 0.331054 -0.158437 0.009219 -0.116133 -0.253832 0.019491 -0.105129 0.041694 0.201896 -0.123673 -0.256509 -0.295928 -0.022986 -0.257626 0.277549 0.536734 0.223378 -0.454457 0.128083 0.286083 0.132655 0.250173 -0.075499 -0.111669 0.051025 -0.065895 -0.34568 -0.050858 -0.362949 -0.366604 -0.256804 -0.214967 0.101232 0.35388 -0.060171 -0.397976 -0.130687 -0.058049 0.120842 -0.11356 0.361787 -0.031343 0.137524 -0.14498 -0.269062 0.188744 -0.049507 0.076599 -0.165014 -0.086989 0.527498 -0.035988 0.208878 -0.14394 0.146858 0.010103 0.037785 0.327077 0.181221 0.218821 0.060753 -0.162828 0.191389 -0.065279 -0.0808 0.03773 0.092967 0.214552 -0.175012 0.090597 -0.087844 0.03749 0.34773 0.083861 0.013336 0.213793 0.264619 0.013365 -0.458632 0.410865 -0.368619 0.211143 0.183242 0.047643 -0.029975 -0.255615 -0.080483 -0.292465 0.19459 0.582719 -0.544491 -0.038673 -0.258656 -0.031123 0.090541 -0.172916 0.166053 0.178586 -0.305371 0.194549 0.648322 -0.065824 -0.03305 -0.486968 0.137572 0.369448 -0.31643 -0.260039 0.08865 0.612667 -0.062392 0.065669 -0.135145 -0.152849 -0.262847 0.318342 0.158315 -0.181542 0.283164 -0.193263 -0.247282 -0.083602 -0.213126 0.236661 0.562191 0.240272 -0.319968 -0.090511 -0.305726 0.390879 0.059143 0.097877 -0.061375 0.072715 0.045222 -0.347054 -0.115131 -0.373964 0.31392 -0.136859 0.076532 0.233703 -0.09535 -0.044445 0.048877 0.163672 0.145612 -0.002922 0.318931 -0.456886 0.031794 0.017869 0.086612 -0.174888 0.5974 -0.341485 -0.0368 0.368044 -0.014142 -0.008368 0.174827 0.216621 -0.33308
airport 0.146542 -0.103257 -0.331466 -0.442448 -0.353096 -0.668038 0.496934 0.210486 -0.123284 0.008662 0.148363 -0.011257 -0.045113 -0.418697 0.211192 -0.201245 0.194449 -0.299603 0.025064 0.656114 0.280754 0.108989 -0.269319 0.103364 -0.02006 0.272778 -0.010466 0.234913 -0.319799 -0.261861 -0.285051 0.241439 -0.233942 0.165248 -0.108743 0.206352 0.027656 0.055953 0.136945 -0.313002 -0.011447 -0.058332 0.411075 -0.216623 -0.234563 -0.092373 0.017617 -0.035436 -0.238184 -0.11177 0.021315 0.004259 -0.132088 -0.45212 -0.2715 0.190393 -0.314989 0.2196 0.01023 0.487849 0.049907 -0.177645 0.059105 0.251695 0.477238 -0.02311 0.053217 -0.179432 0.286417 -0.067296 0.246322 -0.08226 0.20018 0.216705 -0.368231 0.265172 -0.307964 -0.455686 0.043042 0.119131 0.078303 0.616315 -0.173922 -0.237286 -0.310519 -0.104702 0.389511 0.124566 0.285061 -5.19E-4 0.345266 -0.289502 -0.024954 0.298513 -0.153698 -1.48E-4 -0.146855 0.146263 -0.056684 0.149055 0.20764 0.086786 0.251863 0.196045 0.139253 0.092085 0.00869 0.113014 -0.096341 0.285112 -0.300219 -0.08867 0.04457 0.040668 0.507705 0.323054 -0.485326 0.020536 -0.307685 0.19739 -0.017003 0.382167 0.139861 0.220484 -0.419931 -0.080179 -0.278466 -0.302455 -0.174849 -0.486973 0.187867 -0.198065 -0.176702 0.154224 0.40342 -0.335108 -0.279228 -0.075589 0.262791 -0.192822 0.142946 0.052916 0.535626 -0.029674 -0.023135 0.113693 -0.033556 0.48507 -0.207457 -0.043576 0.039846 -0.214822 0.136392 0.369031 0.133052 0.222674 -0.161691 -0.174321 0.055719 -0.216478 -0.233259 0.233833 0.338486 0.022088 -0.153501 0.258184 0.556063 -0.414525 -0.145441 0.063073 0.10735 0.043511 0.03643 0.171634 -0.024292 -0.059348 -0.255573 0.142918 -0.284197 -0.022147 -0.113677 -0.296404 0.161128 -0.28148 0.039937 0.113862 -0.116503 -0.126514 0.336106 -0.227127 0.116693 0.013453 0.081158 0.288973 0.734388 0.512782 -0.22274 -0.140001 0.175222 0.413588 0.654082 0.434862 -0.236675 -0.129388 -0.345307 0.395116 -0.018559 -0.014959 0.144054 -0.180427 -0.349669 0.079661 -0.156103 0.075531 -0.442929 -0.032989 0.159934 -0.264424 -0.012981 -0.314572 -0.483048 0.092076 -0.240165 -0.177118 -0.507681 0.109803 -0.011767 0.212089 0.019413 -0.406525 0.058307 -0.048037 0.135474 -0.172414 0.057897 0.437029 -0.316829 -0.146374 -0.374905 -0.080756 0.3233 -0.091596 0.091887 -0.114142 0.352914 -0.179562 -0.311409 0.196005 0.131286 -0.550236 0.018625 0.028722 -0.17782 0.130343 0.061874 0.028423 0.318347 0.272439 0.307926 -0.373168 0.153753 0.195549 0.318174 -0.072541 -0.252527 -0.335398 -0.02367 0.386086 0.151438 0.266725 -0.260701 0.291868 -0.218974 0.181865 0.355126 0.140625 -0.413922 -0.49272 -0.046943 -0.086559 -0.012027 -0.165762 -0.117484 -0.072448 0.126581 0.080821 0.117703 -0.419505 -0.164514 -0.23174 0.067729 -0.080272 0.217674 -0.092882 0.076738 0.03876 -0.089033 -0.195078 -0.287277 0.079861 -0.02197 0.041534 -0.302501 0.137221 0.219759 -0.025744 0.211378 -0.214391 -0.029163 -0.134165 -0.519398 0.315789 0.262753 0.310699 0.024821 -0.138291 -0.287706 0.038936 -0.059533 0.076896 0.158799 0.26798 -0.271831 0.276223 0.049564 0.38844 0.261017 -0.406558 0.190389 -0.433552 -0.059371 -0.05159 0.177676 -0.143099 0.188072 0.032933 -0.371452 -0.027176 0.175774 0.276535 0.242597 -0.015327 -0.022358 2.85E-4 -0.355809 0.235592 -0.183035 0.093879 -0.071758 -0.37353 -0.684823 -0.046159 0.026109 -0.022109 -0.017143 -0.31918 0.312305 0.083309 -0.323471 0.184543 0.330946 -5.73E-4 0.283413 -0.248691 -0.147988 -0.394387 -0.182117 -0.195591 0.245616 -0.037226 -0.115516 -0.180481 0.008154 -0.197547 -0.509273 -0.140146 -0.489776 -0.059948 -0.003172 -0.148601 0.303972 0.289547 0.030402 -0.182061 -0.185661 -0.143222 -0.057748 0.02268 0.030205 -0.082799 -0.153041 0.020259 0.051079 0.210611 0.135695 -0.017619 -0.158733 0.113905 -0.02034 -0.01347 -0.513358 -0.079676 0.381369 0.191269 0.366365 0.068831 0.093973 -0.233755 0.100198 0.095992 0.038318 -0.038909 0.312598 0.140361 -0.009078 -0.008773 0.281025 0.093549 0.406153 0.140393 -0.286272 0.223034 0.267595 0.088697 -0.169465 -0.010207 0.04249 0.29382 0.024667 0.119861 -0.164422 0.258291 0.036444 -0.082464 0.202121 -0.10081 0.174087 -0.085519 0.244713 -0.228297 -0.090907 0.286171 -0.008012 -0.276255 -0.039546 -0.09344 0.307282 0.167875 -0.103567 -0.22882 0.009319 -0.139215 -0.073746 -0.411676 0.055797 0.116745 0.048293 -0.218655 0.095127 -0.118499 0.452367 0.140027 -0.212806 -0.378534 -0.411282 0.280028 -0.13486 0.148679 0.102146 -0.43872 -0.261613 0.110635 -0.051264 0.073098 0.065676 0.379756 -0.344835 -0.076789 -0.086035 0.025608 -0.216848 -0.07183 0.076408 -0.066688 -0.077952 0.171035 -0.057518 0.333343 0.059554 0.13764 -0.136004 0.018715 0.012008 0.160684 0.245827 0.152417 0.142572 -0.132979 -0.025756 0.032806
population 0.229676 -0.252623 0.288847 0.056036 -0.416689 -0.088778 -0.09975 -0.010038 0.393177 -0.333523 -0.121106 0.009411 0.363497 -0.074836 0.003636 0.136446 0.658748 0.026264 -0.082366 0.387577 -0.15656 -0.08954 -0.667641 -0.111171 -0.065874 -0.209194 0.110439 0.036213 0.011255 -0.013678 0.209045 0.38359 -0.492445 -0.346294 0.180735 0.438207 -0.228533 0.034851 0.020347 -0.259513 0.273279 -0.131013 0.653064 -0.230036 0.173842 -0.223038 0.076395 -0.099641 -0.207819 0.013163 0.119288 0.06969 0.176425 0.059892 0.065769 0.234012 -0.051959 0.038928 0.247733 -0.062216 -0.073761 -0.171457 0.469127 0.013022 -0.183313 -0.0559 0.021699 -0.041366 -0.162836 0.144518 0.569082 -0.00438 0.198558 -0.218099 -0.213013 0.13945 -0.187686 -0.36896 -0.141064 0.284817 -0.220463 0.042601 0.20506 0.020507 0.133673 -0.237164 0.075252 0.26214 -0.19449 0.25418 0.161782 -0.227768 -0.405081 0.454648 -0.390012 -0.443254 0.31051 0.027753 -0.323363 0.191092 -0.418133 0.257304 -0.231623 0.10279 0.05346 0.003358 -0.01302 0.418768 -0.277059 -0.274546 -0.243151 -0.344641 0.033348 -0.17038 0.162375 0.047095 -0.184795 -0.15367 0.191096 -0.097358 -0.585385 0.370887 -0.273136 0.154639 -0.317374 -0.389487 0.132293 -0.100801 -0.187736 0.167179 -0.12041 -0.011286 -0.280396 0.109477 -0.051772 0.095492 0.100572 -0.079052 0.092434 0.182478 0.037426 -0.077755 -0.022 -0.33403 0.125283 -0.173634 0.08633 0.291173 -0.177594 -0.351227 0.343449 -0.102182 0.066898 -0.047551 0.440448 -0.134803 0.279708 0.209915 -0.082039 0.163366 0.056728 -0.088934 0.358407 0.443221 0.141411 0.182542 0.135744 -0.319589 -0.394629 -0.051241 0.197252 0.180876 0.076935 -0.021622 -0.217176 0.198229 0.078102 0.030121 0.016795 -0.074868 0.190184 -0.204533 -0.223625 0.134709 -0.267234 -0.192222 0.082895 -0.333759 0.020443 0.223269 -0.573947 -0.045374 0.034989 0.23509 0.241192 -0.065363 0.29874 -0.108187 0.514396 -0.089317 0.373995 0.129503 -0.111351 0.288503 -0.266976 0.135092 -0.051307 0.057259 -1.78E-4 -0.129881 -0.112968 -0.427893 0.306807 -0.13891 0.256376 0.168039 -0.247493 0.004302 0.02247 -0.027095 -0.679376 0.350845 -0.006188 -0.019873 0.110187 0.317824 0.010958 0.332453 0.463519 -0.086427 0.002146 0.063976 -0.092153 -0.00844 0.020276 0.025696 -0.222576 -0.052078 -0.154693 -0.068607 0.427108 -0.022896 0.213807 0.172047 -0.093147 -0.137713 0.134069 0.086541 -0.343154 -0.224337 0.301542 0.125678 0.210802 0.147075 0.141173 0.158292 0.411284 -0.022735 0.004413 0.085992 -0.255068 -0.379288 0.645755 -0.018197 0.115505 0.056764 0.27627 -0.127044 0.202315 0.09893 0.206345 -0.207821 0.127819 -0.059746 0.21626 -0.156817 -0.350171 -0.10779 -0.515753 -0.217444 0.139893 0.090718 -0.161757 -0.417873 -0.041731 0.134006 -0.131903 -0.077196 -0.709147 0.087758 0.31023 0.13615 -0.006746 0.010129 -0.116823 -0.235509 8.0E-6 0.001135 -0.09619 -0.210338 0.157119 0.190393 0.129871 0.226316 -0.416095 0.36328 0.108024 -0.024169 0.057748 0.068727 -0.477076 -0.463983 0.173198 0.399101 -0.007705 -0.055822 -0.054045 -0.063925 0.010769 0.130724 -0.080257 0.039456 0.311907 0.105737 0.003212 0.158927 0.154293 -0.244778 -0.108778 -0.231023 -0.042661 0.214385 0.064192 -0.008016 -0.023824 -0.0168 -0.170648 0.409557 -0.031226 0.172395 -0.111729 0.035561 -0.335862 -0.043936 -0.132486 -0.232704 0.145469 0.572234 -0.149235 0.173547 -0.090971 -0.230299 -0.284232 0.198061 0.00803 -0.367356 0.044281 0.309302 -3.37E-4 -0.042541 0.185846 0.27333 0.1682 0.123028 -0.158561 0.046181 -0.270125 0.067764 0.150926 0.37987 0.325706 -0.075716 -0.128991 0.356257 0.069518 -0.033386 -0.21293 -0.054941 0.018722 0.267843 -0.175466 -0.020822 0.466696 -0.181781 0.253681 0.027336 0.148462 0.019467 0.124025 0.131499 0.28558 0.191087 0.186845 -0.103059 0.279312 -0.309602 0.182821 -0.214124 -0.034809 0.217272 0.097526 -0.065144 -0.246275 0.213131 -0.320103 -0.091067 -0.013118 -0.166424 0.171857 0.269785 0.293189 0.297 0.012381 -0.187867 -0.608743 0.060936 0.118435 -0.246058 0.343645 -0.131463 -0.057299 -0.161136 0.215855 -0.232685 -0.281803 0.198848 0.649311 0.255503 0.259968 0.256798 -0.18467 0.271247 -0.030856 -0.210567 0.352203 0.22882 -0.063098 -0.018267 -0.127639 -0.146526 -0.22739 0.179674 0.334756 -0.234289 -0.39369 -0.293994 0.545659 -0.671917 0.00386 0.044904 0.022142 -0.63184 0.114429 0.185741 0.193801 -0.062039 0.169095 -0.192187 0.087247 -0.232644 0.084724 -0.042848 0.581444 -0.026204 -0.365362 0.084054 -0.209916 0.173871 -0.132732 0.2267 -0.353627 -0.135857 0.171164 -0.163341 0.126955 0.356992 -0.047025 -0.033031 0.338975 -0.269952 -0.16256 0.526919 -0.002841 0.160569 -0.115068 -0.043751 -0.159124 0.017641 -0.096578 0.368665 -0.103985 0.608812 0.156561 -0.340588 -0.29703 0.181219 -0.105012 0.151061 -0.309225 -0.051673
planning 0.099289 -0.060779 -0.15745 0.252739 0.166317 -0.037235 0.056708 0.21956 0.113695 0.199418 -0.063987 0.077605 0.217168 0.158295 0.09552 -0.385222 -0.501312 0.00412 0.147978 0.310683 0.045269 0.133618 0.056779 0.029911 -0.162429 -0.208311 -0.130265 0.063736 -0.327123 -0.047869 0.060383 0.388395 -0.211229 -0.012681 0.146091 -0.032803 0.120711 0.333189 -0.220392 -0.075964 -0.074198 -0.141311 0.369714 -0.105339 -0.056948 -0.201128 -0.083546 -0.00913 -0.209193 0.206286 0.286973 -0.08448 0.402078 0.090795 0.300433 -0.106072 0.060491 -0.152865 0.04736 -0.040877 0.166113 0.230348 -0.201906 0.077024 -0.245103 0.259892 -0.002353 -0.622612 -0.184404 0.154715 -0.124859 0.200935 0.52109 0.032061 -0.258871 -0.115072 -0.151904 -0.463362 0.122454 -0.147069 -0.32209 0.062115 0.1833 -0.224862 -0.201833 -0.047633 0.225785 0.064581 -0.123241 0.330728 0.009235 -0.015176 -0.268986 0.462742 -0.252728 0.186195 -0.168627 0.123602 -0.112925 -0.047269 0.299346 -0.097008 -0.091808 0.285206 0.200646 0.09176 0.041523 -0.076554 -0.330531 -0.0419 -0.290741 -0.090408 0.053564 -0.352076 0.150815 0.445519 -0.158479 0.456749 0.301156 0.045225 -0.099621 -0.08872 0.439912 0.022243 -0.133079 0.23073 0.165233 0.028135 -0.253136 0.054108 -0.03753 0.142463 0.232144 -0.213769 0.254555 -0.339907 -0.033791 -0.210863 0.299122 -0.006095 -0.088188 0.025731 -0.114912 -0.119529 0.03633 0.204118 -0.1381 0.107058 0.163272 -0.113903 -0.283705 0.228318 -0.019786 0.656762 0.026265 0.331034 -0.029615 -0.223743 0.123867 0.198062 -0.217986 -0.381718 0.448949 0.327066 -0.0249 0.050913 -0.010129 -0.037124 -0.127646 -0.189344 0.257275 0.017189 -0.009442 0.233034 0.05429 -0.232293 -0.304806 -0.186449 0.025717 -0.102108 -0.277342 0.25741 -0.106095 0.256084 -0.038318 -0.210989 -0.125712 0.22122 0.138709 -0.033854 -0.247874 -0.192158 0.068038 0.133553 0.018045 -0.170121 0.147501 -0.278748 0.312708 0.14605 -0.012634 -0.177453 0.101079 0.038386 -0.168828 -0.159272 0.018174 0.266234 0.265475 -0.174275 0.125886 0.117998 -0.031305 -0.224377 -0.224147 -0.343244 -0.441999 0.049053 0.163681 0.021176 0.078623 0.648837 -0.078945 -0.338288 0.177435 -0.010807 0.207621 0.153998 4.94E-4 -0.049261 0.004358 -0.038467 -0.001071 -0.020654 -0.058474 0.048437 -0.190048 -0.023961 -0.071696 0.127318 -0.048895 0.236757 -0.0486 -0.269442 0.155095 -0.059914 0.01918 -0.104143 -0.217673 -0.115015 -0.10572 -0.196339 0.137882 -0.014789 -0.045492 -0.007872 -0.324985 0.02644 0.052452 -0.017925 0.050006 0.01665 -0.351775 0.23901 0.131904 -0.346985 -0.132686 -0.029236 0.303405 0.426811 -0.210011 0.165438 -0.080579 -0.038463 0.228028 0.060706 -0.238621 -0.512821 -0.294218 -0.055542 0.534906 0.192598 0.005978 -0.082033 0.080953 -0.250987 0.142311 0.270311 -0.076017 -0.181737 0.264116 -0.086606 0.103549 -0.274693 0.122238 -0.052391 0.331402 -0.043601 -0.243246 0.092694 0.231899 0.208111 -0.401607 -0.187513 0.013589 -0.181176 0.160494 -0.21541 0.294949 0.04574 -0.215914 -0.047713 -0.069935 0.30939 0.066238 0.009324 0.004821 -0.213206 -0.078873 0.355918 0.00989 0.280166 0.338763 0.234827 0.147418 -0.070126 0.047391 -0.234208 0.166781 -0.063332 0.072766 -0.197989 0.226037 0.202511 0.3521 -0.147522 -0.19183 -0.278155 0.07456 0.196826 0.151395 -0.201584 0.034632 -0.353999 0.197912 0.248048 -0.012792 -0.130829 0.328167 0.282394 -2.02E-4 0.09918 0.072351 -0.426623 0.107906 -0.287566 0.337344 -0.084637 -0.294608 -0.04859 -0.065563 -0.305574 0.054851 -0.294844 -0.046133 0.033154 -0.232335 -0.383124 0.57637 -0.051755 0.063502 0.294499 0.007783 -0.442592 -0.13367 0.28732 -5.49E-4 -0.113094 -0.097818 0.345712 0.183432 0.30138 0.344764 0.00353 -0.028046 0.256736 0.008434 -0.058824 0.105 -0.045779 0.468514 -0.110981 0.025922 -0.228437 0.005155 -0.048219 -0.014098 -0.162657 0.043298 0.131812 -0.221508 -0.057612 -0.015609 0.166693 0.010436 0.004208 -0.125186 0.030567 0.044207 -0.014201 0.0958 0.071236 0.358547 0.157361 -0.208847 -0.360177 0.197084 0.33181 -0.11389 0.105116 -0.166451 0.068048 0.156866 -0.044482 0.234141 -0.061095 -0.049868 0.08354 0.105443 0.064096 0.193027 0.311049 -0.136863 0.121731 0.481424 0.204037 0.282624 -0.049449 0.172306 -0.01594 0.369348 0.27364 0.296764 -0.13976 -0.148283 -0.079119 0.237274 0.058928 -0.154448 -0.017939 -0.015163 -0.166345 0.071638 0.043561 -0.238754 0.315172 -0.176802 0.051848 0.006729 -0.036374 0.259983 0.383884 -0.209902 -0.17957 -0.447122 -0.062393 0.238222 -0.046677 -0.077884 0.310281 -0.304133 -0.184338 0.152363 -0.045764 -0.128788 0.106531 -0.190251 -0.140565 0.031148 -0.238951 0.267977 -0.222427 -0.282913 -0.185224 -0.238562 -0.258357 -0.142246 0.167828 -0.002361 -0.224376 0.260473 -0.080421 0.05523 0.139935 -0.024416 0.08385 0.146706 -0.010324 0.112496 -0.014223
canyon -0.294921 -0.058668 -0.323504 -0.093124 -0.425194 -0.264217 0.427386 0.220579 0.107375 0.17143 0.225551 -0.265959 0.14698 -0.225526 -0.365172 0.151348 0.283876 0.132064 0.011286 -0.050084 -0.575497 0.217058 -0.329507 -0.082628 -0.130571 -0.001768 -0.121637 0.087403 -0.403184 0.020237 -0.231782 0.507997 0.377625 -0.006815 -0.37819 -0.182701 0.283597 0.430868 -0.327421 0.209126 0.141869 -0.005583 0.108495 -0.082714 -0.169354 0.03018 -0.391125 0.197052 0.36634 -0.10552 -0.040131 0.114748 0.125165 -0.031324 -0.240341 -0.167319 0.175318 -0.28185 -0.206541 0.413714 -0.13842 -0.361965 0.15496 -0.080528 -0.019857 -0.174018 -0.243034 -0.320821 0.198535 0.08474 0.415613 0.374115 0.337809 0.272774 0.139554 -0.365515 -0.434095 0.470172 -0.116163 -0.149665 0.134963 0.418083 -0.173165 0.038941 -0.051431 0.055936 0.415778 -0.046014 0.144014 0.305656 0.48013 -0.054886 -0.179729 0.408606 0.064736 -0.065678 -0.354706 -0.126002 -0.136027 0.005063 0.04194 0.413598 -0.110421 0.590852 0.286293 -0.126927 -0.341802 0.003893 -0.238818 0.266387 -0.140849 -0.113048 0.44808 0.027615 -0.042097 0.238022 -0.466437 0.111826 0.031245 0.150165 0.238335 0.106818 0.111424 0.694039 -0.248307 0.337517 0.152055 0.177561 -0.113285 -0.013671 0.028676 -0.345023 0.328854 0.260109 0.38958 -0.135152 0.248489 0.091672 -0.005894 -0.328092 -0.02412 -0.208796 -0.137087 0.050624 0.429044 0.239299 0.01032 -0.152618 -0.730291 -0.334695 -0.050228 0.150096 -0.032251 0.176077 0.129884 -0.315424 0.239151 0.032821 -0.02065 0.064376 0.356215 0.19576 -0.181888 -0.08647 0.019879 0.01322 0.116968 0.010434 0.115367 0.277545 0.088736 0.183608 0.149308 0.290379 -0.310365 0.034427 0.156675 0.247965 -0.018842 0.094385 -0.610734 0.046859 -0.013899 0.052001 -0.07264 -0.26268 -0.003813 -0.484184 0.228441 -0.234745 -0.474567 -0.014232 0.170774 0.336269 0.513058 -0.133261 0.194881 -0.479992 0.568005 -0.276006 -0.16314 -0.10612 -0.42814 0.254561 -0.155489 0.283917 -0.113163 0.19971 -0.05398 -0.118318 -0.0925 0.120817 0.39532 -0.058067 -0.104286 -0.269337 -0.378232 -0.225091 0.226877 -0.172003 -0.165726 -0.144961 -0.292562 0.175752 -0.016259 -0.104633 0.126222 0.164163 0.235352 -0.326598 -0.24869 0.195483 0.241418 0.040744 0.121956 0.300549 0.106658 5.4E-5 -0.620544 0.0573 0.338785 -0.006962 0.086962 -0.314162 -0.071616 -0.470914 -1.57E-4 0.327143 0.090112 -0.389888 -0.164041 -0.247218 0.029178 0.011988 -0.147336 -0.205134 0.485007 -0.422375 -0.446956 0.037212 0.045046 -0.571821 0.102396 -0.056406 -0.069451 0.09946 -0.12867 0.041957 -0.008721 -0.10187 -0.355833 -0.128788 -0.103418 -0.087892 -0.338988 -0.231098 0.038644 -0.062689 0.001364 0.239946 0.224927 -0.572481 0.198975 0.208929 -0.305076 0.001321 -0.532443 -0.076611 0.249208 0.105038 0.071712 0.030184 0.312757 -0.058433 0.07006 0.036246 -0.002357 0.384328 0.107458 0.086383 0.154019 -0.013811 0.053129 0.09896 -0.140044 0.091804 0.067857 0.283093 0.069625 -0.085203 -0.248117 -0.079137 0.440897 0.016643 0.192179 0.471721 -0.004612 0.423245 -0.045827 -0.420343 -0.164392 0.130068 -0.124638 0.196645 -0.234934 -0.120656 -0.023527 -0.152876 -0.071387 -0.149039 -0.306321 0.205851 -0.074297 0.273709 0.06747 -0.068082 -0.059208 0.360133 -0.234614 0.145469 0.181357 0.155519 -0.254651 0.130279 0.353384 -0.012044 0.097671 -0.072847 -0.453318 -0.235998 -0.374509 -0.141694 -0.161958 -0.08229 -0.033447 0.075388 0.069147 0.22114 0.074206 0.043837 0.021492 -0.204486 0.071044 -0.095645 0.149628 -0.217204 0.172402 0.161152 0.234361 -0.084632 -0.133108 0.080102 -0.132325 0.130477 0.04382 -0.070405 0.137165 0.485617 -0.125091 -0.001912 0.627896 -0.248623 0.134968 -0.097443 -0.348072 -0.027424 -0.308037 0.08082 -0.189164 0.376475 -0.459842 -0.010573 -0.018279 0.006289 -0.008138 -0.007702 0.71719 0.184727 -0.177425 0.088651 0.169909 0.154718 -0.098595 0.503498 0.281193 0.330785 0.073715 0.045786 0.141802 0.213388 0.167332 0.122711 0.378867 0.295549 -0.166222 -0.050547 0.189848 0.025108 0.07589 -0.071905 -0.09981 -0.170294 0.184014 0.14405 -0.242072 0.09525 0.248431 -0.063728 -2.85E-4 0.006114 0.10715 -0.338988 -0.403184 -0.149673 0.214638 -0.153494 0.21764 0.205592 0.083892 -0.21269 0.104232 0.171252 0.143483 0.068742 -0.206023 0.555717 0.740853 0.19441 0.120287 -0.052311 -0.091477 -0.237372 -0.105875 0.445594 0.041689 0.024634 -0.056395 -0.332406 0.141231 -0.407155 0.192668 -0.245314 0.04712 -0.143141 -0.339156 -0.197513 0.105048 -0.161024 -0.001119 -0.115573 0.194452 -0.120385 -0.191465 -0.09933 0.203728 -0.185362 0.066572 0.194982 -0.004083 -0.095208 0.288759 -0.151349 0.175676 -0.111096 -0.0605 0.270552 -0.54961 -0.040654 -0.308574 -0.10489 -0.091789 0.1977 -0.08847 0.336169 0.46651 0.134889 0.02755 0.128225 -0.133534 -0.030874
delay 0.066014 -0.338452 0.266916 0.147896 -0.199456 -0.075577 -0.013998 0.526645 0.100566 0.097217 -0.16068 0.382413 0.076052 0.133033 0.192405 0.078843 0.178781 -0.340783 0.11094 -0.067233 0.323386 -0.03478 -0.103205 -0.260263 -0.16085 0.154883 -0.096905 0.742608 -0.171023 -0.031883 -0.469392 0.30941 0.059901 0.04475 -0.011511 -0.004818 -0.322519 0.148953 0.099031 -0.157403 -0.054569 0.417795 0.523601 -0.23792 0.275294 -0.146212 0.035923 -0.126686 -0.134786 0.036906 0.072512 0.184439 0.253974 0.014646 0.205817 -0.11791 0.268637 0.09942 -0.023213 0.331646 0.119385 0.189025 -0.062304 0.102021 -0.196 0.018611 -0.063088 0.012804 0.257836 0.06859 0.274686 0.155063 0.040969 0.17376 -0.02354 -0.482932 0.036276 -0.546927 0.163503 0.198834 -0.083474 -0.032136 -0.107722 -0.204321 0.108955 -0.13214 0.439782 -0.365477 0.140079 -0.306302 -0.033366 -0.400426 -0.538783 0.207547 0.094138 -0.092059 -0.042088 0.134409 -0.28141 -0.253657 0.072094 -0.136912 -0.347659 0.302897 0.575047 0.308117 -0.149303 0.293909 -0.237293 -0.053092 0.213113 -0.030863 -0.307204 0.098872 0.119175 0.107102 0.157739 0.092597 0.144815 0.113695 0.104118 -0.292543 0.095451 0.12509 0.03191 0.482995 -0.027835 0.224358 -0.0048 -0.020555 0.101711 -0.076969 -0.331329 -0.291641 0.152023 -0.205525 -0.01995 -0.116146 0.324835 0.090913 -0.294372 -0.107338 0.311288 -0.505867 0.090552 0.239647 -0.223944 0.320713 0.051248 -0.055954 -0.353483 0.132396 -0.177011 0.188565 0.049062 0.166857 0.149342 -0.535918 -0.036403 0.318443 0.111599 -0.018523 -0.010151 0.099257 -0.17788 0.184128 0.090049 -0.041393 -0.012603 0.122964 -0.215558 -0.08249 0.143302 -0.157063 0.061658 -0.113082 -0.110977 -0.114535 0.254798 -0.081978 -0.05853 0.174011 -0.083664 0.178971 -0.432507 0.171553 -0.095121 0.177918 0.0787 0.129859 -0.181278 -0.219711 0.459449 0.160103 -0.016462 -0.115845 -0.261581 0.019014 0.110563 0.094074 0.035947 -0.003053 0.103244 -0.132134 -0.167013 -0.110377 -0.198544 -0.226008 0.151898 -0.10189 -0.057114 -0.146948 -0.302687 0.023829 -0.390163 -0.267788 -0.046836 -0.030204 0.199651 -0.120684 0.246529 0.046825 -0.137083 -0.322731 -0.028853 -0.249266 0.211971 0.185717 0.22961 0.083647 -0.274906 0.116547 0.019876 0.034379 -0.00264 0.237435 -0.185837 0.022122 -0.011209 0.128659 0.023496 0.218602 0.02324 -0.140807 -0.011286 -0.121533 -0.050527 0.243749 0.105431 0.218069 0.010105 -0.294457 -0.074759 0.185633 -0.090936 -0.158784 0.090728 -0.186731 0.137715 -0.063762 0.242179 -0.151211 -0.018649 -0.102372 0.381817 0.139856 0.083295 0.237824 0.128913 0.047623 -0.051716 -0.146307 0.138347 0.33348 0.204974 0.389937 -0.486152 -0.360754 -0.137366 -0.022266 0.142802 -0.289571 0.202325 -0.290082 0.032465 -0.23895 -0.047133 0.084305 -0.213586 -0.227565 -0.030815 -0.384605 0.009045 -0.019525 0.135026 -0.217606 -0.108564 -0.194586 -0.380042 -0.103053 0.28556 -0.402403 0.021051 -0.015989 -0.242074 -0.241161 0.023156 0.075692 0.454468 0.091571 -0.237976 -0.039292 0.478943 0.35573 -0.077571 0.015335 -0.138411 -0.027038 -0.067203 0.2568 0.096055 0.139816 0.319852 0.308698 0.04699 0.028658 0.375177 0.229116 -0.013578 -0.21816 0.00739 -0.021486 0.125576 0.233281 0.017683 0.155744 -0.122166 0.048385 0.657752 0.360845 0.120652 0.303724 -0.012157 -0.084862 0.21151 0.350591 -0.264893 0.187896 0.064801 0.272448 0.17347 -0.131132 0.550884 -0.248039 0.232044 -0.11051 -0.09233 0.338853 0.126122 -0.056815 -0.002123 -0.291255 -0.025267 -0.24699 -0.497903 0.341585 -0.195535 -0.054498 0.310718 0.144631 -0.166039 -0.10923 -0.133819 -0.22196 -0.277276 0.095433 0.051357 -0.255812 -0.25558 -0.084647 0.226195 0.068913 0.05522 0.101596 -0.189047 -0.237331 -0.148472 -0.332925 -0.140298 -0.198478 -0.017272 0.169665 0.120746 -0.193132 -0.374276 0.03337 -0.059724 0.177453 0.182477 0.198088 0.048021 0.17907 0.148563 0.401661 0.06319 -0.038279 -0.389293 0.078454 0.206063 0.307103 0.04677 -6.08E-4 0.464016 0.211904 -0.001694 0.158087 -0.023883 -0.08825 0.387489 0.23206 0.114844 -0.089579 -0.099745 0.244497 0.078112 0.152336 0.305598 0.1887 -0.05463 0.103193 0.006667 0.075522 -0.021637 0.194111 -0.114304 0.622483 -0.220523 0.352616 -0.436239 0.254819 -0.19743 0.390642 0.164426 -0.026455 -0.22593 0.041406 0.025552 -0.089279 0.096177 -0.048468 -0.456102 -0.194398 0.118543 0.042829 0.066803 0.520352 0.034153 0.422466 -0.181311 -0.369922 0.214151 -0.039785 0.081523 -0.331913 0.055606 -0.059476 0.301329 0.354442 -0.040321 0.016381 -0.230687 0.465736 0.246908 0.348826 0.121942 0.140261 0.006531 -0.382893 -0.089126 0.105118 -0.364573 -0.260465 0.139816 -0.050794 -0.216848 0.106881 -0.221365 -0.215594 -0.048843 -0.147458 -0.12249 0.221026 0.116434 0.182661 -0.083324 -0.01836 -0.013612 0.099442 -0.077343 0.404461
size 0.322188 0.096434 0.198722 0.262354 -0.254037 -0.1275 0.124099 0.013785 0.112057 -0.09732 0.055504 0.100858 0.027365 0.113611 0.009577 0.195836 -0.068244 0.178623 0.13016 0.006895 -0.353033 -0.002073 -0.216514 -0.108091 -0.120303 -0.26753 -0.01422 0.419809 0.054232 -0.077718 -0.081665 0.242055 0.19118 0.460247 0.216442 0.360244 0.259728 0.328663 -0.206891 0.180764 0.30975 -0.070817 0.025796 0.093256 -0.213058 -0.245215 -0.178748 -0.086942 0.078171 -0.049629 -0.016306 -0.086072 0.19737 -0.151161 0.184596 -0.335532 1.57E-4 -0.240846 0.153732 0.314247 -0.241834 0.050263 0.251691 0.142904 0.139246 -0.085827 -0.206678 -0.227145 -0.135631 -0.47499 -0.039226 0.134843 0.01578 -0.297147 -0.130348 0.173596 -0.137465 -0.194092 -0.042515 -0.172468 0.058322 0.174369 0.149245 -0.173435 0.386086 -0.30534 -0.052492 -0.136393 0.149227 -0.065371 0.080935 -0.514798 -0.510345 0.256391 -0.110843 0.320715 0.165006 0.180741 -0.005314 0.219525 -0.238292 -0.021231 -0.108205 0.385671 0.347632 0.525392 -0.00938 0.199054 -0.301034 -0.039811 -0.351685 -0.495437 0.289655 -0.124031 0.313426 0.09342 0.178507 0.056605 0.149383 0.101412 0.016617 0.06374 0.013319 0.248089 0.174048 -0.222111 -0.033057 -0.321628 0.330169 -0.03322 0.521479 -0.51586 -0.243438 -0.472158 0.20741 0.061006 0.031905 -0.116717 -0.268655 0.120669 -0.416879 -0.285319 -0.031271 0.135638 -0.106487 -0.179157 0.027308 0.092038 0.058824 -0.042729 -0.235927 -0.032864 0.013184 -0.087161 0.249044 -0.430321 -0.184471 -0.114988 0.009834 0.31705 -0.298664 -0.3381 0.208302 0.073845 0.259304 0.013763 -0.042287 0.001978 -0.041488 0.239748 0.376741 -0.098572 0.492613 -0.166322 0.38907 -0.045838 -0.060545 0.316717 0.060574 0.129517 -0.354898 0.140413 -0.005859 0.145709 0.147728 0.037683 0.217252 -0.133626 0.213508 -0.311967 -0.072249 0.214289 0.21851 0.155867 0.071851 -0.189852 0.034696 -0.038519 0.146461 0.149113 0.268013 0.362715 0.055358 -0.188151 0.015335 0.425427 0.295339 0.395452 -0.280202 -0.01221 0.133464 -0.202347 0.079252 0.15667 0.202084 3.49E-4 -0.287527 0.206029 0.216554 0.039704 -0.579259 0.085626 -0.069095 0.058793 -0.122342 -0.084589 0.061015 0.700316 0.351392 0.351539 0.021314 -0.235064 -0.214043 0.0796 0.110828 0.083449 -0.035742 0.165327 -0.156042 0.077778 0.143083 -0.097836 0.154808 -0.140299 -0.018396 -0.157906 0.225914 0.22763 0.118232 -0.494366 0.244454 -0.121463 -0.047608 0.066809 -0.149554 0.150369 0.046828 0.470127 -0.046185 -0.15549 -0.122806 -0.476137 0.2848 0.110837 -0.068902 -0.483994 0.210536 0.053486 0.077161 0.070598 -0.254974 0.147961 -0.019808 -0.258827 -0.061369 -0.17376 -0.294742 -0.017547 -0.521227 -0.461501 0.344021 0.098135 -0.181106 -0.255722 -0.13969 -0.033621 -0.09143 0.213804 -0.288355 0.229156 -0.023813 0.01918 0.342535 -0.168976 0.213193 0.123441 0.052092 0.203655 -0.343139 -0.102096 -0.209516 -0.43286 0.074724 0.330233 -0.194443 -0.081267 -0.009989 -0.378783 0.178235 0.144434 -0.246613 -0.250193 0.328401 0.226864 0.012496 0.111359 0.075865 -0.485671 0.082331 0.141087 -0.235616 0.162658 0.23128 0.266662 0.06285 -0.066715 0.194317 -0.088634 -0.073301 -0.38308 -0.305231 -0.39675 0.171343 -0.018839 0.114029 0.339747 -0.125534 -0.136669 0.034902 -0.192851 -0.203863 0.087826 0.048754 -0.256463 0.581233 0.058239 -0.082787 0.423811 -0.048955 -0.048752 0.191725 -0.256076 -0.069986 -0.005162 0.100879 0.03075 -0.025406 0.573099 0.053618 -0.06376 0.308107 0.31224 -0.298466 -0.400661 -0.125153 0.290893 -0.392146 0.065911 -0.245044 -0.336015 -0.060515 -0.064235 -0.020841 0.192612 0.243235 -0.004578 0.337981 0.272752 0.109228 -0.054053 0.1297 0.062906 0.230418 0.471546 0.037681 0.094822 0.020243 0.230433 -0.269477 -0.016919 -0.015996 0.155125 -0.085689 0.060189 -0.017787 0.101037 0.189106 -0.098134 -0.14923 0.071836 -0.029432 0.142983 -0.009085 0.055622 -0.053998 -0.248154 0.155326 -0.070329 -0.015257 0.416931 0.025412 -0.025677 -0.011542 0.097128 -0.619004 -0.075077 -0.016585 -0.12007 -0.005625 0.052458 -3.45E-4 -0.018489 -0.423461 -0.063094 -0.559678 -0.07434 0.788353 0.017629 0.195678 0.303668 -0.151996 0.116082 -0.102526 0.280814 -0.061536 0.466068 -0.308632 0.410468 -0.259187 0.053291 0.111895 0.310054 0.235399 -0.645257 -0.148005 0.008244 0.454686 -0.014181 -0.242906 -0.220074 -0.021729 -0.135769 -0.263209 0.394732 -0.076304 0.05052 0.250042 0.336107 -0.028272 0.267706 -0.072285 -0.165651 -0.060617 -0.310446 -0.096934 -0.158627 0.362867 -0.174445 -0.072241 -0.123629 -0.006114 0.229903 0.063529 -0.199559 0.201477 0.408065 0.099337 -0.095594 0.356364 -0.39317 -0.314122 0.164077 -0.005544 -0.016923 0.291404 0.101099 -0.356783 0.24088 0.028083 -0.149269 -0.133814 0.319429 -2.71E-4 -0.327262 0.150731 0.156326 0.015542 0.385293 -0.274791 -0.137912
peace -0.011613 -0.026124 0.316707 -0.359508 -0.429517 0.121966 -0.158189 0.062279 -0.099506 0.13762 0.022636 -0.00472 0.164246 -0.278815 -0.041736 0.333879 0.314034 -0.017406 -0.254373 0.037442 0.184 0.185022 -0.392942 0.607815 -0.124163 0.182286 -0.016075 0.267125 -0.326308 0.107757 -0.137679 -0.157045 0.200973 0.012467 0.157778 0.059481 -0.470265 -0.175162 -0.084446 0.08499 0.333575 -0.061715 0.249243 -0.101928 -0.191204 -0.302605 -0.547191 0.242381 0.038918 0.32503 -0.032276 0.145698 -0.530091 -0.166832 -0.027509 0.544965 0.074639 0.286119 0.224235 -0.409334 0.09848 0.066461 -0.111322 -0.238473 0.277371 -0.176593 0.432824 -0.360833 -0.188104 0.13204 -0.085037 -0.404225 0.505131 -0.013514 -0.18779 -0.152614 -0.31508 -0.265938 -0.381999 -0.056477 -0.384819 0.13999 0.286842 0.030842 0.025242 -0.384102 0.165288 0.133531 -0.226652 0.143496 0.129345 0.204083 -0.207056 0.211595 -0.317523 -0.162777 -0.143025 -0.027299 0.0337 -0.091555 0.551252 -0.248079 -0.388066 0.265909 0.293383 0.275837 0.284572 -0.258328 -0.368758 0.257786 0.093455 -0.326687 0.031688 0.25151 0.676718 -0.025091 -0.064933 0.225975 0.020663 0.073723 0.248212 0.330294 -0.255258 0.54882 -0.578363 0.336109 -0.367437 0.31321 -0.116937 0.516476 -0.364849 -0.733138 -0.228054 -0.13231 0.595059 -0.235138 0.164782 -0.073759 0.31832 -0.358559 0.006616 0.176022 0.10175 -0.371026 0.743931 0.002702 -0.229693 0.294 -0.09364 -0.33001 0.044618 0.046465 0.499995 0.202977 -0.089864 0.269411 0.185146 -0.361382 0.143388 -0.339476 -0.548087 0.077249 -0.277467 -0.25361 0.308566 0.103275 0.387896 -0.012392 0.016921 -0.003614 0.315877 -0.230966 0.268082 0.122368 -0.546017 0.488441 -0.309372 0.024543 0.334227 0.401394 -0.261829 0.049694 -0.456042 -0.116655 0.130876 -0.234874 -0.303094 -0.082145 -0.089691 0.021688 0.185082 0.101865 0.023682 -0.207995 0.302294 -0.080184 0.159517 -0.322854 0.232479 0.255874 0.040087 -0.206599 0.136141 0.287409 -0.773186 0.271105 -0.042669 0.273676 -0.109033 -0.343208 -0.286131 0.512414 0.02555 -0.098161 0.283007 0.050418 -0.125659 0.150216 0.219161 0.200052 0.376088 0.045752 -0.446374 -0.13447 -0.442499 0.108717 -0.152198 -0.12734 0.458727 -0.010253 0.322985 -0.583215 0.295306 -0.445266 -0.045801 0.2408 -0.101428 0.106444 -0.357366 0.118103 -0.388098 -0.154024 -0.295847 -0.237158 -0.425339 -0.486811 0.169053 -0.228796 0.185208 -0.001417 -0.334689 -0.177217 0.071569 0.424037 -0.119589 -0.112716 0.486723 -0.029062 0.463668 0.112279 0.190576 0.106084 0.331301 0.035791 -0.118245 -0.325119 0.142275 -0.04004 -0.004052 0.162664 -0.185147 0.101376 0.232114 0.43144 0.677556 0.083042 -0.278058 -0.537549 0.104336 0.193165 -0.117148 0.02231 -0.274218 -0.29485 0.185657 0.233552 -0.15524 0.230351 -0.41923 0.261297 -0.301023 -0.03075 0.115235 -0.303096 0.388157 0.148209 -0.205618 -0.210302 -0.135972 -0.081368 0.060843 0.161596 -0.227073 0.134201 -0.081448 -0.094498 -0.055456 -0.122826 0.421253 0.277892 0.052036 -0.20248 0.409192 0.374451 0.211387 -0.050548 0.220817 -0.179243 0.268758 0.491339 -0.408039 0.181155 -0.078965 -0.059964 0.147588 -0.082161 -0.303171 0.108905 0.149212 -0.09098 0.068263 -0.189491 -0.205439 0.421809 0.394787 -0.210978 -0.270164 -0.354274 0.051506 -0.026192 -0.287399 -0.062556 -0.050101 0.030168 0.200005 -0.042054 0.214776 -0.057809 -0.248998 0.08409 -0.489785 -0.328504 -0.071884 -0.257921 -0.225262 -0.102981 -0.01021 0.236722 -0.448628 -0.282857 -0.453693 0.263117 0.311251 -0.185243 -0.075636 0.145621 -0.243463 -0.174465 -0.060072 0.294116 0.245601 0.153598 0.165433 -0.278762 0.038302 -0.135628 0.277515 -0.287962 -0.038118 -0.042864 0.083459 0.1081 0.179576 0.306542 0.299365 -0.162621 0.070792 -0.031284 -0.120645 -0.363722 0.430989 0.284642 0.133712 0.333285 -0.022039 0.439531 0.392125 0.326833 0.031838 0.210192 0.330311 0.098235 -0.31469 0.204309 -0.012289 -0.4011 0.336722 0.074119 0.271084 0.43121 -0.283219 0.080294 0.064355 0.087146 -0.08387 0.343376 0.132476 0.293237 -0.018996 -0.414444 0.230951 -0.092057 0.108262 0.182823 -0.216111 0.084916 0.06374 0.073564 -0.128392 0.453855 -0.012527 -0.123052 -0.04344 -0.450386 -0.009299 0.459279 0.164402 0.213486 0.015374 0.070877 -0.492909 0.286959 0.295199 -0.231089 -0.411024 0.132949 0.206196 -0.024546 0.012495 -0.114898 0.268389 -0.037401 -0.027332 0.177938 0.402231 0.290704 0.248047 0.078715 -0.091739 0.28704 0.141222 -0.093323 0.697663 -0.075842 -0.169845 -0.158856 -0.130704 0.348212 0.04777 -0.201146 -0.252214 0.169625 0.41925 0.130965 -0.23336 -0.244148 0.171941 0.304126 0.292311 -0.107787 -0.294625 0.149622 0.051471 0.203848 -0.330734 0.15928 -0.110202 0.080489 -0.295385 0.173993 -0.278065 -0.088281 0.019163 0.362258 -0.217205 -0.258727 0.194857 0.209722 -0.139814 -0.273751
science 0.51448 0.034474 0.185213 -0.122493 -0.24401 -0.16455 0.41019 0.501847 -0.124044 -0.052472 -0.072824 -0.015567 0.041292 0.14015 -0.078943 0.214587 0.009605 -0.166672 -0.241226 -0.145214 0.272872 0.357285 -0.016847 0.124894 -0.213534 -0.477757 0.144453 -0.178959 0.13797 0.142117 0.020953 0.138701 0.108979 -0.153956 0.248965 0.225495 -0.026804 0.200046 0.09275 0.330492 -0.055166 0.035359 0.143336 0.020325 0.038814 -0.233062 -0.106183 0.025502 -0.362957 -0.473643 0.075632 -0.05796 0.122508 -0.148229 0.329769 0.083956 0.192162 0.155814 0.076117 -0.099031 -0.244734 0.038172 0.349446 0.057522 -0.14314 -0.035654 0.413005 -0.549411 0.149699 0.079278 0.121855 -0.072032 0.555818 -0.156396 -0.048077 0.098029 -0.119129 -0.070797 -0.37248 -0.212159 0.132287 -0.136999 0.202922 0.026355 0.064697 -0.201468 0.239549 0.245937 -0.06866 0.154506 -0.248712 -0.138204 -0.074814 0.390013 0.191697 0.067751 0.21814 -0.005164 0.076695 0.071807 0.286179 0.089333 0.027595 0.127005 0.35261 0.063403 0.016685 0.181986 -0.35747 0.330873 -0.435202 -0.52767 -0.112837 0.251177 0.219253 0.226461 0.120198 0.370687 0.247185 0.241392 0.031409 0.08224 0.293883 -0.004682 -0.193896 -0.063608 -0.236774 0.244522 -0.096812 0.324554 0.227908 -0.006296 0.336231 -0.315035 0.428193 -0.425251 -0.309224 -0.156505 0.204716 -0.019697 0.526938 0.372259 0.413269 -0.221922 0.132891 -0.223513 0.076423 0.032348 -0.403188 -0.29027 0.048549 0.032899 0.463899 -0.144617 0.007381 0.218691 0.316287 0.077901 0.12279 0.08026 0.003687 -0.190809 0.477554 0.055828 0.045124 0.012257 -0.12333 0.060648 0.356936 -0.013214 0.406838 0.616568 -0.068036 0.22614 -0.26384 0.008006 -0.340167 0.121049 0.361375 -0.227503 -0.362905 0.125099 -0.184495 0.130762 -0.14966 -0.192955 8.79E-4 -0.48422 -0.189941 -0.254773 -0.285069 0.015525 0.495023 -0.167062 0.431668 0.187004 0.019527 0.269926 0.386873 0.048868 0.237591 0.016033 0.190914 -0.08291 -0.113057 0.26403 -0.136852 0.321311 -0.279555 -0.388331 -0.010501 0.143285 -0.05414 -0.121943 -0.196252 -0.138065 -0.013318 0.130647 -0.062087 -0.152846 0.177254 -0.085491 -0.163917 -0.1438 -0.096657 0.344805 0.057484 0.441022 0.058576 0.10253 -0.097457 -0.184467 -0.011618 0.176225 0.115343 -1.74E-4 -0.173808 -0.3268 -0.157813 0.106658 -0.270402 -0.170207 0.447178 -0.267519 0.323822 -0.305239 -0.014519 0.212397 0.142227 0.303019 -0.097486 -0.592883 -0.230117 -0.150223 -0.07308 0.251937 0.130234 0.299232 0.14768 -0.251559 -0.298404 0.061159 -0.14372 -0.105303 0.05152 -0.026399 -0.107871 -0.120915 0.042854 -0.155484 -0.475345 0.042908 -0.288692 0.351226 -0.208652 -0.111797 0.183058 0.040584 0.457803 -0.183123 -0.175063 0.081901 -0.160859 0.042013 0.080461 0.072647 -0.188167 0.38513 0.195428 -0.099759 -0.203241 0.049695 0.294457 -0.312708 0.162495 -0.19351 -0.346879 0.139604 0.214197 0.117687 0.297401 -0.313535 0.327724 0.10019 -0.079951 -0.218794 0.115213 0.0941 0.039547 -0.03942 0.070286 -0.019627 0.096664 0.222143 -0.016434 0.09092 -0.259312 -0.1584 -0.057329 0.042978 -0.128465 0.209255 -0.346271 -0.178883 -0.099893 -0.297258 -0.048548 0.02616 0.315224 0.123861 0.268194 0.606686 0.084059 0.550119 0.023912 -0.341806 -0.181748 -0.246812 0.130262 -0.471299 -0.081512 0.442149 0.181008 0.149652 -0.12093 -0.323825 -0.366365 0.013763 -0.133988 0.058264 -0.163486 0.407254 0.301266 -0.148134 -0.142029 0.378509 0.145094 0.165966 -0.060671 0.067234 -0.017702 -0.004007 -0.102059 -0.191367 -0.00623 -0.217206 0.227408 -0.010855 0.105607 -0.208025 0.1229 0.067227 -0.160549 -0.198255 0.124895 -0.13572 0.077861 -0.520721 -0.009499 0.086859 0.391986 -0.007258 -0.005954 0.109577 -0.151672 -0.076722 0.342111 0.054155 -0.17004 -0.118301 0.432693 -0.163788 -0.346571 0.048212 -0.146449 0.083634 0.171431 0.121412 -0.144741 0.230473 0.032752 0.156448 0.130969 -0.088781 0.404303 -0.158974 -6.38E-4 0.139367 0.262693 0.233311 0.086473 -0.022957 0.091664 0.103821 -0.121251 -0.020281 0.183357 -0.002861 0.502475 -0.113754 -0.227838 0.090033 0.694071 -0.037587 -0.022056 0.046924 0.111637 0.269997 0.004852 -0.042011 -0.01261 0.006291 -0.177164 -0.068393 0.417366 0.212459 -0.440874 -0.097668 -0.141383 -0.130452 0.069316 0.313927 0.167051 -0.241712 -0.206214 0.087395 0.359624 -0.025246 0.035649 0.220821 -0.159196 -0.651812 -0.025605 0.208963 0.286087 0.027212 0.284728 -0.023841 0.103074 -0.086144 -0.13341 0.330466 -0.132718 0.085209 0.006835 -0.371458 -0.332502 0.206511 0.267949 0.138874 -0.059558 -0.124081 0.179863 -0.078592 0.093555 0.322107 -0.041948 -0.483997 0.501162 -0.146077 -0.306489 -0.101693 0.016312 0.130378 -0.035867 -0.05861 -0.21287 -0.140624 -0.192074 -0.192817 0.081732 -0.060136 0.019513 -0.158688 -0.315588 0.012683 -0.086862 0.277553 -0.082575 -0.109958
dawn 0.021544 0.089501 0.203067 -0.416677 -0.175893 -0.145386 -0.147086 0.517505 -0.128631 -0.279517 0.077776 0.150918 -0.40341 -0.14271 0.069099 -0.385433 -0.03059 -0.028182 0.123719 0.390029 0.050418 0.652249 -0.264658 -0.137219 -0.164626 -0.238198 -0.062139 -0.065856 -0.135687 -0.255584 0.133967 0.32257 -0.065676 0.468185 -0.105366 -0.074941 0.14985 0.466422 -0.166842 0.017238 -0.062739 -0.302927 0.234147 -0.07633 0.075083 -0.206757 -0.070896 0.047166 -0.049447 0.083513 0.340388 0.036599 0.079186 -0.661699 -0.371292 0.18867 0.094796 -0.052382 -0.19932 0.123756 -0.268043 0.38663 -0.213045 -0.055527 0.263092 -0.188454 -1.05E-4 -0.067434 0.141715 0.161932 0.066572 0.058214 0.323979 0.37693 4.45E-4 -0.232035 -0.186051 0.348564 -0.229875 0.079556 0.059562 0.177693 -0.378844 0.125407 -0.576028 -0.444346 -0.18804 -0.001909 0.147672 -0.253847 0.122055 -0.065306 -0.051794 0.496679 0.036774 -0.234244 0.049038 -0.385784 -0.029529 -0.119859 0.037427 -0.303027 -0.207915 0.310483 0.421167 0.080363 0.138912 -0.040166 -0.073692 0.362042 -0.094388 -0.102926 0.14463 0.055862 -0.009842 -0.241051 -0.183982 -0.112517 0.302515 0.034017 0.066355 0.337439 -0.193642 0.154855 -0.19161 -0.236659 0.541384 0.099432 -0.159974 0.21457 -0.147856 -0.273466 0.244951 -0.04132 0.152703 0.337238 -0.089527 -0.031316 0.189411 -0.253146 -0.254935 0.064907 -0.082307 -0.129331 0.134229 0.191621 0.09456 0.179076 -0.043573 -0.297965 0.020759 0.076681 0.17725 0.192074 -0.354348 -0.288966 0.44021 -0.453581 -0.035774 -0.058957 -0.64538 -0.094889 -0.176504 -0.020786 0.066749 0.420125 0.287268 -0.667064 0.202561 -0.009324 -0.126017 0.401469 0.110554 0.104755 -0.006037 0.001524 0.033112 -0.017326 -0.121363 -0.097258 -0.501514 0.108467 -0.422656 0.153064 0.541849 -0.090575 -0.084038 -0.206265 0.010319 0.179736 0.298857 0.156577 0.137125 0.514534 0.394206 0.197463 -0.15253 -0.132421 0.215922 -0.154448 0.146776 0.17928 9.5E-5 0.039605 -0.399836 -0.307209 -0.027028 -0.027837 0.341388 -0.057379 -0.191638 0.052877 0.186993 -0.42915 -0.220402 0.340767 -0.119622 0.138157 0.324219 -0.035538 -0.433134 -0.029452 0.224997 0.197954 -0.227144 0.487294 0.293961 0.203988 0.402258 -0.079639 0.300953 -0.28617 0.084466 0.087368 -0.025404 0.420321 -0.236846 0.337518 -0.34496 0.108764 -0.266663 -0.078548 -0.50763 -0.155418 0.130315 0.124154 -0.62797 0.289549 0.178371 0.002231 -0.04037 -0.118392 0.226713 -0.074711 0.176611 -0.09982 0.369011 0.053563 0.017833 -0.193874 0.16608 0.243598 -0.184396 -0.512055 0.42591 0.194651 0.373384 0.40627 -0.022981 0.092966 -0.146581 0.023569 -0.007645 -0.323034 0.178581 0.21733 0.205633 -0.166373 -0.038513 0.001676 0.234156 -0.141659 0.136475 2.64E-4 0.35486 -0.311231 -0.25087 -0.225501 0.138977 0.148506 -0.222148 -0.10097 0.26445 0.266515 -0.219637 -0.046191 0.131648 0.33393 -0.354477 0.134823 0.284572 0.341995 -0.00484 -0.065827 0.006742 0.22439 -0.224887 -0.618393 -0.056457 -0.143397 -0.008259 -0.502237 0.076989 -0.020346 0.239708 -0.176178 -0.247274 -0.061526 -0.215221 0.043454 -0.485227 0.081378 0.033437 0.303031 0.355988 0.016645 -0.045578 -0.276759 0.01732 0.015994 0.123329 0.222662 0.071982 0.203856 -0.409176 -0.059687 -0.207637 -0.120294 -0.199603 0.044837 -0.038342 -0.222177 -0.107901 0.031167 0.052921 0.298551 -0.074814 -0.596478 -0.251975 0.06426 -0.702594 0.200479 0.193895 0.10124 0.198989 -0.004762 0.141499 0.179441 -0.182678 0.235748 -0.19681 0.199488 0.166133 0.114541 -0.219776 0.093463 0.024285 -0.195638 -0.107776 0.051917 -0.025699 0.157012 -0.015344 -0.065658 -0.16146 0.419325 -0.256372 0.385815 -0.118539 0.00204 -0.267637 0.201988 0.166806 -0.046239 0.042193 -0.275616 -0.074652 -0.208468 0.233718 -0.226227 -0.221399 -0.2701 -0.229828 -0.224807 0.154316 -0.051539 0.00909 0.130136 0.118613 0.048604 -0.333882 -0.272301 0.117291 -0.09682 -0.051928 -0.168609 0.434157 0.044584 -0.296314 0.379269 -0.010082 0.061371 0.450958 -0.030777 0.049689 -0.016836 0.038224 0.18992 -0.029745 -0.207285 -0.206037 -0.0166 0.034995 -0.102129 -0.099352 -0.24521 -0.00122 0.388972 0.126883 -0.049092 -0.287998 0.105865 0.079769 0.294544 0.286128 0.100484 -0.089379 0.149996 -0.074795 -0.333694 -0.211846 0.439888 0.198491 -0.130873 -0.178086 -0.015607 0.346627 -0.404648 0.073465 0.041092 0.170902 0.067085 -0.163862 -0.021039 0.153954 0.063849 -0.066425 0.281033 0.049191 0.062458 0.16317 0.388867 0.151326 -0.26856 -0.040731 0.225652 0.172882 0.150454 0.023939 -0.295242 -0.371084 0.047319 0.219793 0.217584 0.249483 -0.046536 -0.427397 0.110261 -0.105996 0.15027 -0.331761 -0.014544 0.247485 -0.050932 -0.204486 0.223247 0.029437 -0.720685 0.279411 -0.20941 -0.159921 0.00693 -0.485353 -0.233668 -0.2552 0.255625 -0.113405 0.445115 0.092516 -0.351438
